<?xml version="1.0"?>
<opencv_storage>
<HOGlegs type_id="opencv-object-detector-hog">
  <winSize>
    104 312</winSize>
  <blockSize>
    16 16</blockSize>
  <blockStride>
    8 8</blockStride>
  <cellSize>
    8 8</cellSize>
  <nbins>9</nbins>
  <derivAperture>1</derivAperture>
  <winSigma>4.</winSigma>
  <histogramNormType>0</histogramNormType>
  <L2HysThreshold>2.0000000000000001e-01</L2HysThreshold>
  <gammaCorrection>1</gammaCorrection>
  <nlevels>64</nlevels>
  <signedGradient>0</signedGradient>
  <SVMDetector>
    8.85031372e-03 3.97490449e-02 7.13186990e-03 2.52991673e-02
    3.58843151e-03 -2.03664787e-02 -1.14703076e-02 2.25079693e-02
    2.70754658e-03 1.28376037e-02 3.74299772e-02 1.48598859e-02
    2.32373644e-02 -1.94051713e-02 -1.50600979e-02 2.19583977e-04
    1.12002194e-02 -6.52723201e-03 -5.53196017e-03 3.75208296e-02
    3.92946182e-03 1.90110765e-02 -2.17446405e-02 -2.28383392e-02
    -3.87290083e-02 -3.40969139e-03 -3.74107324e-02 -1.33754415e-02
    1.98689569e-02 -6.30771555e-03 1.96513124e-02 -2.98681743e-02
    -1.71319116e-02 -2.18908023e-02 1.19373826e-02 -2.54590251e-02
    3.42725702e-02 3.98620702e-02 1.41193019e-02 1.09753516e-02
    -1.50762666e-02 -2.00134981e-03 1.00984785e-03 9.37542506e-03
    1.60419624e-02 1.19092595e-02 1.87225826e-02 -5.92348306e-03
    7.15344679e-03 -1.73280668e-02 -4.96946741e-03 -9.10863187e-03
    9.65407956e-03 3.27720051e-03 9.00521874e-03 4.33698902e-03
    -1.21350223e-02 1.18451482e-02 -3.16866823e-02 -1.22264093e-02
    -1.06698852e-02 1.46097066e-02 -9.19069909e-03 -1.30069889e-02
    -8.21985770e-03 -2.91268788e-02 6.66698394e-03 -3.45126614e-02
    -1.48898084e-02 -1.21162990e-02 7.91956950e-03 -1.87568627e-02
    1.13475239e-02 2.26805583e-02 -5.09641180e-03 1.72639487e-03
    -8.82750470e-03 7.00109638e-03 6.87236013e-03 2.72438098e-02
    1.99739579e-02 -6.54748641e-03 3.20282280e-02 -1.57027282e-02
    1.08031919e-02 -9.11708828e-03 -7.12326588e-03 -2.04787813e-02
    1.54294148e-02 -5.99309150e-03 -8.50536861e-03 6.58832444e-03
    -1.36590004e-02 -1.01572908e-02 -3.35347727e-02 6.65800122e-04
    -3.52842617e-03 1.39046088e-02 -1.55271962e-02 -2.82032993e-02
    5.34044905e-03 -1.54349320e-02 7.06228334e-03 -2.49049906e-02
    2.50798301e-03 -5.46001364e-04 4.86470386e-03 -3.49787511e-02
    1.88436434e-02 3.84154096e-02 4.21763351e-03 1.60622355e-02
    8.05418286e-03 -4.62252880e-03 -4.07139538e-03 1.55840470e-02
    3.04464553e-03 1.32506806e-02 3.01167294e-02 2.55841273e-03
    -1.24114833e-03 -1.68163199e-02 -1.77218597e-02 -5.58375707e-03
    -3.76023003e-03 -1.08468542e-02 -1.98934879e-02 6.51083142e-03
    -1.77760758e-02 9.65980720e-03 -5.05447714e-03 1.33881252e-02
    6.83726370e-03 1.24880271e-02 -1.62248556e-02 -1.90556385e-02
    -1.14900302e-02 -1.03204688e-02 -1.43912081e-02 -1.96501836e-02
    -1.69265624e-02 -8.45436298e-04 -7.39839161e-03 -1.71166640e-02
    3.39207724e-02 4.64651622e-02 -3.17543163e-03 -1.62837729e-02
    -3.85984927e-02 -2.79375371e-02 -7.67326634e-03 -1.11309590e-03
    3.08771315e-03 2.63781399e-02 3.66520844e-02 7.77612731e-04
    -9.99362674e-03 -1.51076810e-02 -1.56776365e-02 1.68163031e-02
    1.98592339e-02 9.17996652e-03 8.13932996e-03 1.29933702e-02
    -1.57182720e-02 -2.69911457e-02 -3.63800675e-02 -3.27242799e-02
    -1.00007597e-02 -6.28042500e-03 -2.54971581e-03 1.14396252e-02
    2.88347923e-03 -8.75476003e-03 -9.53571964e-03 -2.28099767e-02
    -9.94311832e-03 2.31796242e-02 3.07889022e-02 2.45752931e-02
    3.71158384e-02 1.96065605e-02 -1.05157180e-03 -1.53069226e-02
    5.80631616e-03 -1.63254850e-02 1.69391860e-03 1.39664197e-02
    2.69040689e-02 3.12380660e-02 1.58335306e-02 -9.42722242e-03
    -1.96467899e-02 -1.14532597e-02 -8.15045740e-03 1.10226274e-02
    8.99070129e-03 8.16718675e-03 -6.49171742e-03 3.95316258e-03
    2.40537775e-05 -1.13285314e-02 -9.00454819e-03 -4.00766311e-03
    4.36199567e-04 1.87653750e-02 -1.42806594e-03 -1.27941733e-02
    7.81743787e-03 -2.43544597e-02 -1.83425285e-02 -1.81972627e-02
    -2.79774936e-03 7.08846515e-03 1.73492096e-02 -1.76256634e-02
    3.29320021e-02 1.24584436e-02 8.27122480e-03 4.33825096e-03
    -5.05072530e-03 -1.45088602e-02 2.35215835e-02 1.37694199e-02
    6.81276899e-03 2.31423769e-02 4.03473154e-03 4.82523162e-03
    -3.34947812e-03 -1.65733937e-02 -7.61840784e-04 8.75336211e-03
    7.66016403e-03 -4.19067917e-03 -5.66205988e-03 1.40987756e-02
    2.91970768e-03 -6.63180742e-03 -7.98574090e-03 -1.30219236e-02
    4.73694410e-03 2.47786194e-02 -1.75277062e-04 -9.76340938e-03
    2.42864364e-03 3.98226781e-03 -5.34458552e-03 -9.71621182e-03
    1.04229311e-02 6.18399028e-03 2.33520735e-02 -1.79314928e-03
    2.89577283e-02 1.14625590e-02 -5.10829268e-03 -1.40484571e-02
    -3.47253419e-02 -1.19518703e-02 -8.53985455e-03 1.06628351e-04
    1.43972347e-02 3.23940441e-02 1.98475849e-02 6.84602372e-03
    -7.11500784e-03 -2.61984044e-03 -1.56327505e-02 -6.15625922e-03
    -2.86832824e-03 2.55528167e-02 3.86373489e-03 2.84984149e-03
    5.08919731e-03 -7.46393437e-03 -1.89652368e-02 2.45862245e-03
    -2.83067371e-03 2.91209028e-04 9.28529538e-03 5.16436808e-03
    1.00688878e-02 5.91253163e-03 -1.04142434e-03 -9.98469256e-03
    -3.92880198e-03 -4.55902657e-03 3.91369592e-03 1.78222340e-02
    2.42487527e-02 1.25105297e-02 3.44072562e-03 -6.10637991e-03
    2.86049815e-03 1.11780688e-02 1.25427600e-02 -9.74902825e-04
    1.68413557e-02 -4.93856031e-04 7.89636839e-03 -2.08566524e-03
    -3.12281866e-03 -4.76485677e-03 9.40877758e-03 4.58976114e-03
    -1.27639752e-02 -9.84198487e-05 4.48994990e-03 7.88549893e-03
    1.16390025e-03 4.51226748e-04 1.26447750e-03 1.17838206e-02
    1.17863687e-02 1.35614146e-02 1.61741097e-02 9.55149531e-03
    1.29633059e-03 -1.03600894e-03 1.11602927e-02 1.65991136e-04
    6.18299842e-03 -4.94900998e-03 -1.03566675e-02 1.05613666e-02
    1.79716168e-04 4.41415329e-03 -4.21451451e-03 2.04625167e-02
    2.36821715e-02 1.51865021e-03 9.44708474e-03 -5.02768147e-04
    4.43047239e-03 -5.31836158e-05 2.06284178e-03 -9.21179727e-03
    8.50023516e-03 2.70258188e-02 1.01554627e-02 3.73295648e-03
    -4.96255932e-04 -7.89799669e-04 9.13919881e-03 -4.99280915e-03
    -1.30825369e-02 2.78766435e-02 1.19097875e-02 -1.04424385e-02
    -2.43333355e-03 3.46729229e-03 7.87854847e-03 8.04005843e-03
    -9.40178335e-03 -1.61795560e-02 2.09003035e-02 1.22903790e-02
    -1.39178345e-02 -1.32608963e-02 -4.05577384e-03 -9.38344863e-04
    2.81098601e-03 6.19299058e-03 -8.33598548e-04 -1.69968978e-03
    2.26356946e-02 8.93526990e-03 9.84404050e-03 4.84060682e-03
    1.05315400e-02 -1.49127655e-03 -1.75657135e-03 -7.54008302e-03
    -1.03618316e-02 -1.17988158e-02 2.18076340e-04 -4.60660840e-06
    1.32913450e-02 1.12264361e-02 1.21646570e-02 6.98146818e-04
    -7.61109730e-03 4.24733339e-03 6.44352427e-03 -9.17894300e-03
    -2.69296113e-03 2.27636611e-03 9.94301867e-03 -8.87291739e-04
    1.09263067e-03 2.75831437e-03 -1.39447758e-02 -1.13282939e-02
    -5.02751136e-05 -6.70264335e-03 2.41435133e-02 1.22459754e-02
    4.03119659e-04 8.16048880e-04 3.73592298e-03 -9.10803303e-03
    -1.43907778e-02 2.06890446e-03 -5.80003858e-03 3.66864493e-03
    -5.97837334e-03 -4.33493452e-03 1.90613903e-02 1.12542091e-02
    -4.96599916e-03 -8.11134651e-03 -1.34524051e-03 -1.15381153e-02
    -1.13468114e-02 -1.34926327e-02 8.76447093e-03 1.16950870e-02
    1.89634711e-02 -6.29772013e-03 -3.98759358e-03 3.76140140e-03
    -1.59322214e-03 1.93950348e-02 3.53866816e-03 1.02631683e-02
    5.32761961e-03 1.86677128e-02 -5.67390351e-03 6.51548291e-03
    2.73869606e-03 -1.20078316e-02 -9.00692120e-03 -1.17569044e-02
    5.28907357e-03 2.74709202e-02 1.57280695e-02 7.79424515e-03
    1.59147673e-03 -2.72526522e-03 -8.13103188e-03 -2.17970298e-03
    -5.54170972e-03 -3.89543711e-03 9.39338934e-03 -8.61415919e-03
    -1.54811041e-02 -1.89010438e-03 1.84593499e-02 6.09632209e-03
    4.76108538e-03 4.67359088e-03 1.15906065e-02 7.16409273e-03
    2.13519484e-02 -2.31605722e-03 1.31238233e-02 -9.23487917e-03
    -6.33447524e-03 7.49475369e-03 -7.05392798e-03 -3.77000310e-03
    -7.66490074e-03 -4.61459247e-04 -1.81640964e-02 2.70496585e-05
    -9.27799474e-03 -5.10950014e-03 1.57962646e-02 -9.75525239e-04
    1.21414084e-02 9.30678006e-03 -1.34616275e-03 -2.13451218e-02
    -1.70795638e-02 1.08455168e-02 -4.34602657e-03 3.15942219e-03
    1.99277569e-02 1.30474465e-02 5.32694208e-03 -1.36051408e-03
    -1.40714664e-02 6.38553174e-04 -1.46719030e-04 -1.66811422e-03
    -4.49763285e-03 9.98372864e-03 8.69853888e-03 -9.54578631e-04
    1.28357103e-02 -1.42698307e-02 -2.10195500e-02 -1.09430123e-02
    -2.04390455e-02 1.37599111e-02 1.06142098e-02 -3.04465834e-03
    -4.85656224e-03 2.96795217e-04 -2.33040284e-02 -2.00314932e-02
    -1.20144589e-02 -2.04780065e-02 -4.18732688e-03 -8.31704214e-03
    -3.89161240e-03 3.91084701e-03 1.50320884e-02 1.29828556e-02
    1.09253414e-02 3.33175366e-03 1.29951909e-02 1.07577750e-02
    8.32769740e-03 -1.03511056e-02 -1.02679571e-02 8.06756597e-03
    -2.58904416e-03 -7.61819817e-03 -3.26447166e-03 1.49553651e-02
    1.69369634e-02 7.50093628e-03 -1.82868950e-02 -1.33032994e-02
    2.83305673e-03 -2.26981565e-03 -4.30936553e-03 4.66449215e-04
    -1.45085324e-02 -1.28722086e-03 -2.37174258e-02 -1.36871869e-02
    -3.22805569e-02 -9.42634325e-03 -2.98812985e-03 -1.21213766e-02
    2.15163775e-04 -2.34613870e-03 6.69494038e-04 -5.00252470e-03
    -5.44852018e-03 -8.58859997e-03 3.08923773e-03 -1.21337213e-02
    -8.19180533e-03 4.59785713e-03 5.26454160e-03 1.95870438e-04
    2.66016135e-03 4.98868246e-03 -3.90063575e-03 6.00615190e-03
    4.27078689e-03 -1.64153408e-02 -5.51000750e-03 8.65175575e-03
    -5.01218205e-03 -8.51645251e-04 2.09392537e-03 -8.30170233e-03
    -4.83074598e-03 2.72781937e-03 -8.24435428e-03 1.42748235e-02
    1.78680080e-03 -4.83936677e-03 5.55738527e-03 1.87515505e-02
    1.50249694e-02 1.65303517e-02 2.10720953e-02 -3.43356654e-02
    2.68487551e-04 5.21269068e-03 -1.38355577e-02 -2.24896503e-04
    4.54443041e-03 -5.67562645e-03 2.21194010e-02 1.40933702e-02
    -4.69410140e-03 5.53806033e-03 7.33018294e-03 2.39131181e-03
    2.60194042e-03 -3.96949984e-03 -2.56679137e-03 1.16324928e-02
    -8.59677326e-03 9.98288207e-03 1.83334295e-02 2.47873701e-02
    2.02110074e-02 1.33061945e-03 9.42230411e-03 1.83339361e-02
    1.68189742e-02 1.70641113e-02 -1.97812114e-02 -6.32539205e-03
    -5.58735151e-03 -5.74946590e-03 -7.89813604e-03 1.14867073e-02
    2.13137083e-02 -1.19608521e-04 -4.21517249e-03 -9.36522242e-03
    1.57794766e-02 3.14217759e-03 9.46857128e-03 2.21660174e-03
    1.49906217e-03 -4.15354781e-03 -1.03284502e-02 -1.60904545e-02
    -4.41634050e-03 1.27648758e-02 1.69617645e-02 9.48095229e-03
    1.70651451e-02 1.83674085e-04 -1.69425737e-02 -4.77615278e-03
    -5.76304155e-04 -1.72713809e-02 -9.97397397e-03 -9.49542411e-03
    -1.04529299e-02 5.54365618e-03 1.34032443e-02 1.91253051e-02
    -3.03417398e-03 -5.62205259e-03 -1.74357148e-03 1.63206998e-02
    8.76893941e-03 2.04163161e-03 -1.78054266e-03 -2.36290204e-03
    -5.90699399e-03 -8.24704859e-03 1.52777391e-03 1.41442148e-02
    3.86016350e-03 -8.03322438e-03 -1.69675648e-02 -2.87818979e-03
    1.82534531e-02 5.95545536e-03 1.77503843e-02 5.23628993e-03
    -3.19934171e-03 -1.73168145e-02 -9.95625276e-03 -8.75584595e-03
    1.46272667e-02 1.36714298e-02 8.13335832e-03 1.33012561e-02
    1.24130780e-02 1.16118630e-02 -6.96449773e-03 -3.43537470e-03
    -1.23181930e-02 3.04139382e-03 -6.54203724e-03 -1.05159162e-02
    7.27967685e-03 8.89424700e-03 1.74870845e-02 -4.77314740e-03
    -5.19133592e-03 -4.21385653e-03 4.50033881e-03 -1.40276868e-02
    2.59206048e-04 6.14141952e-03 1.01185041e-02 1.03519186e-02
    -2.39825080e-04 -3.79850902e-03 -8.64969846e-03 -1.33365914e-02
    9.22044087e-03 7.70791387e-03 1.17229493e-02 1.23214852e-02
    2.13437658e-02 5.13632456e-03 -1.99411553e-03 -1.74273271e-02
    7.87807256e-03 -4.13918868e-03 1.50629012e-02 2.19984708e-04
    -5.80845121e-03 1.83766596e-02 1.24207707e-02 1.99347846e-02
    2.61370768e-03 1.20755751e-02 -2.13518739e-03 1.26805725e-02
    6.80529745e-03 7.67313782e-03 2.09813495e-03 6.69199741e-03
    -7.53704458e-03 -7.13749416e-03 -7.81817734e-03 1.10670570e-02
    1.07722795e-02 -9.49662365e-03 -7.47251092e-03 -3.87001783e-03
    5.70219010e-03 1.02417525e-02 -1.06898956e-02 9.72811133e-03
    -9.50032566e-03 2.10519647e-03 -6.29048143e-03 -7.76306260e-03
    3.68428789e-03 1.11406604e-02 1.18540777e-02 4.22543322e-04
    -1.53998274e-03 1.00885751e-02 5.60739823e-03 8.57857615e-03
    2.04621255e-03 1.59686226e-02 -7.69059546e-03 1.07160658e-02
    5.51433489e-03 2.12310161e-03 5.77028980e-03 1.77598803e-03
    -1.14911683e-02 -5.41279383e-04 1.70399547e-02 1.11223459e-02
    1.59124751e-02 -1.59746204e-02 1.61449693e-03 1.60228834e-02
    4.65297885e-03 -1.21701183e-03 1.01094609e-02 3.79233481e-03
    6.26170135e-04 4.77122795e-03 -7.89886527e-03 4.04242426e-03
    -3.65591701e-03 -9.74628329e-03 9.65727214e-03 4.16368333e-04
    1.61127262e-02 4.79181390e-03 -8.48514959e-03 6.20446354e-03
    1.93538284e-03 -2.57063028e-03 -1.70892645e-02 4.52690478e-03
    1.16497530e-02 2.49021631e-02 2.60834442e-03 -4.88633756e-03
    5.72754769e-03 -1.16651517e-03 -2.31069350e-03 -8.69432092e-03
    1.78605854e-03 -1.26878102e-03 7.30411150e-03 1.10461656e-02
    -6.01809286e-03 1.21341099e-03 6.33469643e-03 -1.49101447e-02
    -1.07508395e-02 2.03506951e-03 -6.71877660e-06 1.90026071e-02
    -1.01956800e-02 -1.46505414e-02 -5.26571088e-03 2.61312304e-03
    -1.41016033e-04 -1.80648603e-02 -1.79849420e-04 5.26277814e-03
    -2.97787413e-03 -1.26542645e-02 -3.53377080e-03 -4.79908613e-03
    2.20960588e-03 2.62368401e-03 -1.82538815e-02 1.74588673e-02
    1.00117233e-02 4.01575863e-03 -4.01482498e-03 1.58311203e-02
    -4.28574486e-03 1.75050751e-03 -7.23019987e-03 -9.80911078e-04
    4.26856708e-03 -9.01077036e-03 -1.90929521e-03 -1.70954801e-02
    9.41507606e-05 6.84635667e-03 1.09166699e-02 -3.92243592e-03
    -1.28407599e-02 9.76911001e-03 -2.66788248e-03 3.27391550e-03
    -6.27012691e-03 6.55686622e-03 -1.80578011e-03 9.72119067e-03
    1.13947773e-02 2.82328366e-03 2.02375520e-02 2.07988787e-02
    -6.76281517e-03 -9.73647740e-03 1.46215083e-02 -4.49721189e-03
    4.28555970e-04 9.28094797e-03 9.40862112e-03 1.73127856e-02
    3.45616066e-03 -3.22806761e-02 -3.74012291e-02 2.36480939e-03
    -1.31608080e-02 -3.41326697e-03 3.82591767e-04 -1.19658969e-02
    4.62093996e-03 1.08766230e-02 -2.65268469e-03 -3.86191625e-03
    5.89590613e-03 -5.99374343e-03 -5.61560318e-03 -1.51614062e-02
    -2.60655452e-02 2.45527457e-03 -3.62898014e-03 -3.05192359e-02
    -2.42565256e-02 -6.79826550e-03 -1.39753480e-04 -1.20610977e-02
    -6.65574276e-04 -3.55967059e-04 4.17827303e-03 -1.07654370e-03
    -1.93131194e-02 -2.61344258e-02 9.71338805e-03 5.37255500e-03
    6.13930542e-03 -6.85329782e-03 -1.66379157e-02 8.25138018e-03
    1.05986241e-02 1.08093512e-03 -1.97476614e-02 -7.84236193e-03
    -2.61521363e-03 1.15668597e-02 -8.84590950e-03 -1.46876397e-02
    6.46257214e-03 -5.06059593e-03 -2.34455131e-02 -1.87387187e-02
    -4.55817347e-03 8.23543034e-03 9.52953752e-03 -3.86703270e-03
    1.15179829e-03 1.86396465e-02 2.31328458e-02 8.84822756e-03
    -5.56425750e-03 -7.52692390e-03 -1.53273074e-02 3.35663301e-03
    -1.33870896e-02 -4.32683574e-03 1.87930353e-02 1.59460623e-02
    -4.19254554e-03 -1.26438923e-02 -6.21726830e-03 -6.12074649e-03
    7.75433565e-03 -2.32654307e-02 -9.01965890e-03 9.43365041e-03
    7.90208392e-03 4.23867442e-03 5.42796543e-03 2.19412684e-03
    -1.87162366e-02 -9.13094729e-03 -3.10408254e-03 5.59435226e-03
    2.07880083e-02 1.75196286e-02 -3.21579026e-03 -1.07732071e-02
    -6.16500294e-03 -3.39182699e-03 1.73817035e-02 -1.96889229e-02
    -4.66486951e-03 1.15370117e-02 6.08028285e-03 -3.00497725e-03
    6.42082014e-05 -1.63170823e-03 -5.04952017e-03 6.44989591e-03
    -1.02177309e-02 -1.59124061e-02 3.14439088e-03 3.81976861e-04
    -1.22188088e-02 -1.46564208e-02 -3.77698732e-03 -2.93130288e-03
    1.24162883e-02 -6.23365631e-03 -1.81281809e-02 -2.30557332e-03
    3.06177215e-04 -2.53565479e-02 -1.56239420e-02 -1.33040892e-02
    -2.14267466e-02 1.23822531e-02 4.88904351e-03 3.88354005e-04
    8.51096492e-03 5.84057486e-03 2.89826654e-04 -5.55059779e-03
    -4.42082575e-03 2.04682539e-04 2.40914747e-02 -1.43616437e-03
    -8.59677698e-03 2.97362451e-03 2.93246452e-02 2.33293208e-03
    -2.52022687e-03 -7.26647116e-03 -3.95362498e-03 -1.30959763e-03
    1.23438425e-03 -9.02853720e-03 2.87037762e-03 -9.41125792e-04
    -4.77008661e-03 7.60276627e-04 -4.96045407e-03 -1.97996683e-02
    1.27656506e-02 -5.67693450e-03 -1.32734077e-02 -2.55174440e-04
    -2.01278683e-02 2.29808688e-03 -3.22510302e-03 -2.64138187e-04
    -5.14749950e-03 7.77423661e-03 3.07528744e-03 -1.84137337e-02
    -1.07776206e-02 1.79048569e-03 5.47643658e-03 2.60532927e-03
    2.97285640e-03 -4.61117039e-03 1.45813199e-02 6.50517642e-04
    -1.15730958e-02 7.09214015e-04 -2.28859112e-02 -3.20866122e-03
    -7.26500340e-03 -2.76328926e-03 2.20218534e-03 8.43336340e-03
    -2.56918301e-03 -2.21612491e-02 -2.42216303e-03 -1.28026996e-02
    -3.16742284e-04 -2.97557116e-02 -5.11108246e-03 -1.21021038e-03
    9.65379179e-03 -7.91961502e-04 -1.81277599e-02 -2.21122405e-03
    1.23636471e-03 6.88508386e-03 -9.28831846e-03 -2.73024384e-03
    -1.53265405e-03 2.54531670e-03 1.92620058e-03 -5.92165487e-03
    1.86365824e-02 -1.39730060e-02 -7.51254195e-03 -1.17588621e-02
    -1.18149910e-03 -1.87060074e-03 1.22232977e-02 1.04932683e-02
    -1.19052245e-03 1.40910605e-02 6.05884241e-03 1.21348794e-03
    5.02041075e-03 1.38919363e-02 4.58045909e-03 5.61064109e-03
    -8.03312659e-03 -4.15894063e-03 -2.09831051e-03 8.81199818e-03
    1.41224097e-02 8.20351474e-04 3.46640451e-03 1.85239001e-03
    4.48183622e-03 2.37553031e-03 -2.18814029e-03 4.58378531e-03
    6.97995443e-03 -4.39674547e-03 -1.51559571e-02 3.22542898e-03
    8.61047301e-03 3.33805848e-03 -1.24888225e-02 -3.94388894e-03
    -4.21142392e-03 2.31498294e-03 1.13713900e-02 -3.01242108e-03
    1.58439986e-02 6.67486759e-03 -6.38541009e-04 -1.84597503e-02
    -3.25435516e-03 -1.28941080e-02 -1.84802862e-03 -2.56674294e-03
    -8.47585499e-03 2.14367770e-02 -2.08291318e-03 -6.48419082e-04
    9.91218537e-03 7.67801236e-03 8.47357791e-03 5.22465818e-03
    -2.73016724e-03 -1.08904054e-03 1.79911242e-03 2.12041698e-02
    2.76800059e-02 1.58419996e-03 3.67499888e-03 8.37944541e-03
    -9.33509227e-03 -5.58054354e-03 -1.70677155e-02 6.73917821e-03
    2.25489605e-02 8.41295160e-03 2.80243548e-04 5.75708505e-03
    3.73795931e-03 2.83643557e-03 5.58972266e-03 1.08472253e-04
    1.42143350e-02 5.23955980e-03 1.99216437e-02 7.65759777e-03
    1.54757230e-02 6.88525429e-03 -6.21841173e-04 7.25511648e-03
    -1.43417129e-02 1.27847295e-03 1.09787136e-02 9.78285819e-03
    -1.83432307e-02 -7.93333282e-04 3.81300948e-03 -1.28284236e-02
    -4.65090433e-03 -1.61065068e-02 1.11452881e-02 1.23766745e-02
    -1.32581387e-02 -1.96306035e-02 5.24206925e-03 1.35892369e-02
    9.60190501e-03 1.39792189e-02 5.40095568e-03 8.44723638e-03
    -4.69299406e-03 -1.26411617e-02 -4.11643647e-03 1.21509237e-02
    4.75561619e-03 -1.71961123e-03 -6.17494946e-03 -5.15583903e-03
    -2.67771562e-03 1.10153551e-03 -1.33450255e-02 -9.40865721e-04
    1.07633956e-02 1.22821303e-02 2.12549362e-02 1.08738393e-02
    1.64761135e-04 -3.76298185e-03 1.49747422e-02 -8.95257387e-03
    -2.43838746e-02 1.21505337e-03 1.07110543e-02 3.64756398e-03
    2.03919578e-02 3.10361711e-03 2.91608809e-03 1.26294848e-02
    -2.82778381e-03 -2.65899915e-02 2.88416445e-03 -5.70886722e-03
    3.21304542e-03 2.14647371e-02 6.51486497e-03 1.09068006e-02
    1.75484587e-02 1.42077720e-02 -3.85980587e-03 5.26177417e-03
    3.68261151e-03 3.93735943e-03 1.13057839e-02 4.29210300e-03
    -1.13665557e-03 2.58575268e-02 -1.32525796e-02 -8.53881426e-03
    -1.08684486e-04 -7.33148074e-03 1.20380917e-03 1.70965213e-02
    1.19793052e-02 1.83856208e-02 2.37032156e-02 8.69663991e-03
    -2.50538681e-02 -8.91263504e-03 -4.36182693e-03 8.10968410e-03
    2.89878063e-03 1.05197616e-02 1.50399553e-02 4.94222157e-03
    4.39881906e-03 -3.73934172e-02 -1.72522720e-02 -1.42408290e-03
    1.02626001e-02 1.33016063e-02 2.20338833e-02 2.00954545e-02
    -3.57990665e-03 -8.96491017e-03 2.05632369e-03 -5.12709422e-03
    -1.07459240e-02 -5.94631210e-03 2.18881713e-03 1.52451070e-02
    2.15184204e-02 1.33704618e-02 1.83071308e-02 -1.11437752e-03
    -1.12785986e-02 -1.11484982e-03 1.03435293e-03 8.58282729e-04
    1.93875730e-02 1.79868732e-02 -2.26693926e-03 1.07465331e-02
    -1.93890724e-02 -1.36477519e-02 2.90023605e-03 1.17534949e-02
    -5.77908009e-03 -1.03059895e-02 2.81734066e-03 7.19589368e-03
    1.40133752e-02 -8.56417324e-03 -9.89308581e-03 5.92874363e-03
    3.50671471e-03 -1.14528639e-02 -1.56276748e-02 -1.08660953e-02
    4.54821112e-03 7.62375072e-03 4.29194933e-03 -9.83161665e-03
    1.36456452e-02 1.68192983e-02 -1.66874425e-03 6.19192887e-03
    -3.27329221e-03 5.10144397e-04 1.62587874e-02 -4.26800549e-03
    -3.48871201e-03 6.37209369e-03 6.58088457e-03 -6.71444973e-03
    2.72698188e-03 -2.32623701e-04 -4.53344779e-03 1.68344900e-02
    -5.43625513e-03 -9.74428840e-03 8.31839163e-03 8.44691240e-05
    -1.02276104e-02 -2.20606774e-02 -9.56795458e-03 -4.99675982e-03
    -5.91792818e-03 -1.19963270e-02 -7.65021052e-03 1.86861083e-02
    2.11433079e-02 -1.04678301e-02 -1.51992775e-02 3.90379340e-03
    3.39442794e-03 -1.02745462e-02 6.45953743e-03 9.03189834e-03
    1.89842226e-03 -8.61241203e-03 -1.20735317e-02 -7.57145090e-03
    -4.23038611e-03 -6.30924653e-04 1.36203747e-02 -1.11872731e-02
    7.78806908e-03 1.56461131e-02 -6.28200825e-03 -1.76991392e-02
    5.46184508e-03 -1.69859908e-03 1.22306505e-02 4.89545579e-04
    -1.01218661e-02 -3.08265298e-04 8.86645820e-03 4.90099424e-03
    -6.65911380e-03 -1.42259737e-02 6.77341642e-03 -2.38163653e-03
    -1.54954047e-04 -1.42492056e-02 -3.71812447e-03 2.16882769e-03
    1.06181437e-03 -6.64179772e-03 -1.66871632e-03 4.05169418e-03
    -9.21720173e-03 -1.49238976e-02 -1.42509285e-02 -6.60836650e-03
    9.41132021e-04 -1.82628203e-02 -1.41218852e-03 1.26339234e-02
    5.29695908e-03 1.53240236e-02 -1.19094003e-03 -3.93228559e-03
    4.15407540e-03 6.72812620e-03 5.76103688e-04 2.30345931e-02
    -8.01112037e-03 1.22886589e-02 1.33281713e-02 -8.59052595e-03
    -7.60360248e-03 -5.74108725e-03 2.89175962e-03 -6.35302439e-03
    -1.04586864e-02 -7.27184489e-03 -9.69520211e-03 -2.11306326e-02
    -1.34263104e-02 -1.66527983e-02 -7.45652523e-03 -8.01414531e-03
    -1.88701823e-02 -1.49045652e-02 8.22328869e-03 2.00961088e-03
    -1.83819421e-02 -2.06870716e-02 8.95057712e-03 7.29514007e-03
    6.96683628e-03 -4.38472442e-03 -4.47321305e-04 -2.08326913e-02
    -3.52337840e-03 4.67836345e-03 -3.89122427e-03 6.32619997e-03
    -4.70038364e-03 1.13301119e-02 -2.42155348e-03 -1.15530537e-02
    -7.66019756e-03 -6.88908156e-03 -5.47278393e-03 -3.40695120e-03
    1.94862764e-02 6.31325766e-02 1.53086418e-02 1.94222946e-02
    -7.74895248e-04 -8.43914971e-03 -1.60982106e-02 1.49641400e-02
    -2.20246054e-02 -1.20862550e-03 4.93810698e-02 5.94077306e-03
    2.59594172e-02 -1.70471538e-02 -3.51375761e-03 -1.24350321e-02
    2.02867258e-02 -2.95065586e-02 -7.25642312e-03 3.14028375e-02
    2.52358004e-05 1.79935750e-02 -1.00892779e-04 -1.92127526e-02
    -2.65703294e-02 5.53051243e-03 -2.99491566e-02 -9.78143420e-03
    1.87224820e-02 2.85981339e-03 2.00077705e-02 1.92952082e-02
    -2.06621224e-03 -5.77339577e-03 1.23492330e-02 -2.86666173e-02
    1.81001555e-02 2.46388111e-02 -9.43812449e-03 1.53019996e-02
    -1.30952550e-02 -3.96863383e-04 4.61468147e-03 3.18774581e-02
    -5.99683030e-03 1.60656013e-02 2.81629264e-02 -4.99363663e-03
    8.17018375e-03 -2.68679522e-02 -9.28679481e-03 7.50168646e-03
    3.15053463e-02 -2.64681038e-03 -8.53786245e-04 1.57237425e-02
    -3.37610487e-03 8.83025583e-03 -1.02052018e-02 -8.22702516e-03
    2.72290222e-03 2.20389813e-02 -1.86631437e-02 -6.19772030e-03
    2.03243345e-02 -1.39099127e-02 -1.10705281e-02 -1.62940230e-02
    -1.10771377e-02 1.02300318e-02 3.71721089e-02 -1.49285542e-02
    1.65974963e-02 3.10933292e-02 -5.68386866e-03 -3.91888386e-03
    -2.51735058e-02 -6.27563801e-03 9.68405791e-03 2.20238566e-02
    1.02059338e-02 -2.96431594e-03 2.46581733e-02 -8.67510680e-03
    1.22722490e-02 -1.72715429e-02 -5.19554783e-03 6.90175174e-03
    1.72959547e-02 -9.60079487e-03 5.59427403e-03 2.75388155e-02
    -1.24995140e-02 -6.45279139e-03 -2.74546444e-02 -1.87700372e-02
    2.30574887e-03 3.11707035e-02 5.00664534e-03 9.68703441e-03
    1.39548276e-02 -2.07630955e-02 1.23305880e-02 -3.05644367e-02
    -1.94315203e-02 -6.31726161e-03 1.13728363e-02 -3.14463017e-04
    8.69616959e-03 1.22061949e-02 -6.80672645e-04 2.13882830e-02
    5.32874325e-03 2.18399893e-03 3.44198756e-03 1.91161688e-02
    3.43220378e-03 -6.26754016e-03 2.57560005e-03 -5.85890515e-03
    -3.62276472e-03 -1.73157919e-02 -8.58135056e-03 3.60929337e-03
    2.53265221e-02 -1.79497933e-03 3.66597483e-03 2.73709698e-03
    -1.72801800e-02 1.34863332e-02 -1.05508901e-02 -1.46213546e-02
    -5.89198060e-03 1.27948234e-02 1.02872103e-02 1.08763561e-04
    2.13554874e-03 -1.93985887e-02 -2.91381171e-03 -2.25688685e-02
    -1.92271750e-02 -3.99192283e-03 2.83493381e-02 7.65646109e-04
    1.12665873e-02 5.68938674e-03 -1.48855159e-02 -1.83261726e-02
    -2.14968733e-02 -4.37009940e-03 9.48676839e-03 1.73540562e-02
    1.30360210e-02 8.49122368e-03 9.66851506e-03 -6.85772160e-03
    -3.21318919e-04 -6.31983345e-03 5.73885068e-03 1.31186321e-02
    2.94073187e-02 1.46216853e-02 -1.03834858e-02 -9.18658637e-03
    -1.10863764e-02 -8.72926228e-03 -2.54054535e-02 -2.00690497e-02
    -2.46340130e-02 1.54049173e-02 -5.55092003e-03 4.80524870e-03
    3.11428704e-03 -6.03065966e-03 2.66926759e-03 4.20841621e-03
    4.40897234e-03 5.92974306e-04 2.65268683e-02 4.61054826e-03
    2.71194195e-03 8.26295931e-03 -7.88882654e-03 -1.57642609e-03
    -4.75635519e-03 -1.09137362e-03 -2.57879985e-03 1.81163680e-02
    6.96963118e-03 1.06855072e-02 1.95134543e-02 -1.99415181e-02
    -5.68805868e-03 -1.89301185e-02 -3.68950004e-03 -6.92505250e-03
    3.41461673e-02 8.64011049e-03 5.57225617e-03 -4.91528027e-03
    -1.17125027e-02 1.45099591e-03 1.55047579e-02 -4.92279045e-03
    -9.49787442e-03 1.12402868e-02 8.70443042e-03 -3.09176836e-03
    1.06920395e-03 -1.26334867e-02 -4.68172104e-04 1.08392201e-02
    -1.20444167e-02 -6.77471468e-03 6.31920900e-03 -1.15119126e-02
    1.86653584e-02 2.56125368e-02 -2.46346765e-03 -9.56608728e-03
    -1.67236626e-02 -6.86437683e-03 4.07471583e-04 4.02207002e-02
    1.69181209e-02 1.17941583e-02 1.47290323e-02 -1.83747412e-04
    -8.15973431e-03 1.43853752e-02 1.48306601e-02 -6.25065248e-03
    2.89217085e-02 1.20286113e-02 9.82809067e-03 -3.64474976e-03
    -1.78853306e-03 -3.88182886e-03 -4.81257535e-04 -8.12135916e-03
    8.53823149e-04 1.29405651e-02 3.93829169e-03 -1.00491857e-02
    -1.32704033e-02 -1.20638600e-02 -3.41246463e-03 -3.12124076e-03
    -6.99083041e-03 5.49167534e-03 1.14616193e-02 -3.33098648e-03
    1.80008840e-02 1.88403614e-02 1.38175795e-02 3.25479358e-03
    1.74370222e-02 1.10437851e-02 1.02703436e-03 1.29352482e-02
    1.62168574e-02 -4.40582819e-03 1.19194314e-02 8.70426837e-03
    1.24146771e-02 3.28275934e-03 6.23032544e-03 1.73302216e-03
    1.84974894e-02 2.25529931e-02 -4.58228309e-03 -7.89109711e-03
    -8.04732461e-03 -5.28866192e-03 1.46630034e-03 -4.99506481e-03
    -1.60134155e-02 -1.85152353e-03 -8.29902664e-03 -1.25798788e-02
    -3.34947044e-03 -3.88162117e-03 4.18372778e-03 -1.25820721e-02
    7.12027866e-03 -1.28880311e-02 -1.29765796e-03 -1.05696218e-02
    -5.38577233e-03 3.01034516e-03 8.79087113e-03 2.08094306e-02
    -1.71881740e-03 1.32561447e-02 4.19036206e-03 1.83472503e-02
    1.53630991e-02 -6.04337594e-03 1.73364952e-02 1.28964530e-02
    1.10888733e-02 -1.38291763e-03 -3.17475060e-03 6.48368557e-04
    1.17690228e-02 -2.40779686e-04 -9.45470855e-03 -6.92504086e-03
    -3.29603325e-03 -6.11890433e-03 -2.50116494e-02 9.01358854e-03
    -5.92333917e-03 8.42326414e-03 4.23539808e-04 -1.10009052e-02
    3.06171621e-03 -1.57062132e-02 -1.60230920e-02 -8.57523549e-03
    -1.85676683e-02 -1.46585079e-02 2.39169504e-02 1.14659546e-02
    8.37183837e-03 1.62593741e-02 1.97320599e-02 2.08380502e-02
    2.32463353e-03 -8.14707018e-03 -6.18189760e-03 3.12206838e-02
    1.80278141e-02 4.72061522e-03 1.80749744e-02 8.30155797e-03
    1.80630609e-02 2.09558289e-02 -6.23801630e-03 -1.60675682e-02
    1.77603532e-02 4.90416307e-03 -5.59915043e-03 2.04737633e-02
    4.58915578e-03 -4.91054822e-03 5.50810806e-03 -1.82800349e-02
    -1.85449719e-02 1.88027844e-02 2.60883793e-02 -2.70777498e-03
    2.16560382e-02 2.45712139e-03 -3.85557115e-03 2.83923117e-03
    -1.38581078e-02 -2.63556503e-02 1.73686147e-02 1.48126232e-02
    1.26873553e-02 1.87566597e-02 -2.05985946e-03 5.86471753e-03
    2.32696608e-02 -1.07196197e-02 -1.00865485e-02 1.37879252e-02
    6.42562425e-03 1.71499781e-03 1.78813376e-02 1.42474445e-02
    5.04113128e-03 5.79212839e-03 1.28933853e-02 2.85848021e-03
    3.86436842e-02 2.26663072e-02 3.04756267e-03 1.64406747e-02
    2.76192965e-04 -1.46606062e-02 3.21759516e-03 -1.69459786e-02
    -2.76821684e-02 8.93681683e-03 9.54693742e-03 5.03860181e-03
    7.08826445e-03 -1.36910928e-02 -1.46010853e-02 -1.00408392e-02
    -1.26178598e-03 6.09689346e-03 2.37257741e-02 2.04511154e-02
    -3.56434355e-03 1.40677746e-02 1.90200862e-02 1.25492401e-02
    -1.40680401e-02 1.21731665e-02 -6.60157017e-03 2.32436769e-02
    1.60726570e-02 3.51804099e-03 1.18872290e-02 2.57187709e-02
    3.18217720e-03 -3.60806764e-04 1.52538754e-02 -4.82770056e-03
    -3.85704800e-04 3.43377260e-03 9.80700715e-04 -8.49559321e-04
    1.22645040e-04 -9.48611554e-03 -1.44387232e-02 6.20871829e-03
    7.02007627e-03 1.80082452e-02 1.28451856e-02 -3.66270705e-03
    -8.07454530e-03 8.24432913e-03 1.91581290e-04 -1.17108906e-02
    1.31245027e-03 -5.75131364e-03 -5.61714871e-04 -4.76556644e-03
    1.92616470e-02 9.04603209e-03 1.13831060e-02 -6.58068061e-03
    4.51531308e-03 9.30888299e-03 -3.29139107e-03 1.77594610e-02
    2.66057029e-02 6.37704227e-03 -7.94019829e-03 -3.13867815e-04
    -6.56909123e-03 -2.38613039e-03 6.76128734e-03 6.85591716e-03
    2.04277113e-02 1.89176556e-02 -6.52838266e-03 -3.26372986e-03
    6.16665045e-03 -7.38196680e-03 -6.27920171e-03 3.44372401e-03
    -2.93516857e-03 1.81044694e-02 9.44545027e-03 -1.30880550e-02
    -7.54656084e-03 5.67945279e-03 -9.02201794e-03 1.54344784e-02
    2.72491714e-03 -6.12683920e-03 2.21212581e-02 1.20009081e-02
    7.60383625e-03 -5.23380423e-03 1.09463707e-02 -2.79894238e-03
    -1.67194661e-02 -6.23967033e-03 -7.76859291e-04 2.47636046e-02
    2.51004882e-02 3.38853896e-03 -1.90592594e-02 1.34861032e-02
    6.29113521e-03 9.86594427e-03 3.49529972e-03 -8.40352091e-04
    1.57612544e-02 2.30198521e-02 -2.57238303e-03 -1.11390531e-04
    2.45208144e-02 -2.97261495e-03 2.47451034e-03 -2.13170331e-03
    -3.13097541e-03 8.62465706e-03 2.76671792e-03 -1.01940604e-02
    -1.59117933e-02 1.30804433e-02 1.29551226e-02 1.07597280e-03
    -7.06546474e-03 4.84576216e-03 8.45582876e-03 -1.32436547e-02
    -5.65114617e-03 -1.69298518e-02 5.31203952e-03 4.17689001e-03
    2.23573074e-02 1.09750209e-02 2.03571701e-03 1.35321692e-02
    6.19016169e-03 -7.53102964e-03 -8.26668460e-03 1.49413222e-03
    -2.85597262e-03 5.43477573e-03 3.02760731e-02 2.10524332e-02
    2.83495057e-02 1.53926890e-02 5.66418574e-04 9.61649872e-04
    7.98640773e-03 3.27969482e-03 1.25220120e-02 -3.92912608e-03
    6.30918075e-04 3.46978288e-03 -8.90434254e-03 1.29868602e-02
    1.89534798e-02 -2.11355300e-03 -1.89456660e-02 -2.08971929e-03
    7.25744106e-03 2.59172590e-03 1.29045695e-02 1.14650112e-02
    -1.06536457e-02 -2.85577495e-04 5.74892992e-03 -7.33734632e-04
    4.00064164e-04 1.83521472e-02 1.00424672e-02 1.18456548e-02
    4.73557878e-03 1.74863115e-02 2.52037421e-02 2.87233070e-02
    7.91422743e-03 -3.04595418e-02 1.75462314e-03 1.51504138e-02
    1.26534127e-04 3.10054119e-03 2.28991942e-03 -1.33940997e-03
    1.79368572e-03 -9.28728003e-03 -6.67726435e-03 3.54019762e-03
    1.08925207e-03 5.89039922e-03 -8.27934686e-03 9.49401595e-03
    -9.69392131e-04 3.48172965e-04 -7.95941241e-03 -1.92592721e-02
    -9.02553089e-03 7.19542289e-03 1.31710377e-02 -9.57452506e-03
    1.14931315e-02 2.97976136e-02 1.23377340e-02 8.15416034e-03
    -1.39364162e-02 3.31699126e-03 6.91400841e-03 -1.90487911e-03
    6.16652251e-04 1.35443220e-02 3.21131870e-02 1.40531790e-02
    -1.11689074e-02 -5.08302357e-03 9.85600171e-04 -4.62255906e-03
    -2.38225260e-03 -4.99393977e-03 1.36176525e-02 1.47136045e-03
    1.68308063e-04 -6.94946712e-03 -1.16476347e-03 -1.84366980e-03
    9.12072510e-03 1.08973412e-02 -3.60648875e-04 8.27733148e-03
    4.47388273e-03 1.08316690e-02 -5.95340226e-03 -1.02658262e-02
    -4.78865998e-03 2.92436802e-03 -8.63187667e-03 4.95037530e-03
    7.64907058e-03 2.33089235e-02 1.36886928e-02 -4.30378271e-03
    1.46847619e-02 7.29304552e-03 7.32349185e-03 -4.78411885e-03
    2.42308830e-03 2.47140811e-03 1.18915066e-02 2.62004836e-03
    2.75213271e-04 2.31260918e-02 1.69788522e-03 -5.90899773e-03
    -8.63989908e-03 -8.12671147e-03 1.16384514e-02 1.20162340e-02
    9.12918244e-03 2.53576552e-03 5.01357997e-03 5.95486769e-03
    5.63542265e-03 -1.25772534e-02 -4.97987960e-03 -8.28272942e-03
    -9.10125498e-04 3.62009130e-04 3.18644103e-03 6.28422061e-03
    -1.84519440e-02 -9.95186251e-03 -1.46315852e-02 -2.92158127e-02
    -3.74499214e-05 -1.11978306e-02 -4.17792378e-03 -5.58183622e-03
    2.62992792e-02 6.03967463e-04 1.40503305e-03 6.31985371e-04
    1.15652685e-03 -1.55780436e-02 -1.68080609e-02 -1.51827699e-02
    -1.22094210e-02 1.14976652e-02 1.31522715e-02 9.86666419e-03
    5.22049703e-03 -5.78521658e-03 2.25303825e-02 2.36133594e-04
    2.94553791e-03 2.38709664e-03 8.57050531e-03 -1.84929725e-02
    -7.36669078e-03 1.52970187e-03 1.08131487e-02 1.99324489e-02
    -2.58244108e-03 5.41380281e-03 -6.03787415e-03 -2.48929416e-03
    -4.47137654e-03 6.17626309e-03 2.06969306e-03 1.84329972e-02
    -5.98051446e-03 -9.11836419e-03 7.47919315e-04 5.34236571e-03
    -1.86439289e-03 1.58239454e-02 5.38820168e-03 1.07543496e-02
    1.43756228e-03 1.43701127e-02 -1.11591304e-02 -4.47547436e-03
    -9.06591862e-03 -4.20187693e-03 9.05596931e-03 9.84156132e-03
    3.52392043e-03 1.23798270e-02 5.52238524e-03 1.09390635e-02
    1.88182143e-03 4.59652999e-03 5.41704590e-04 1.64533742e-02
    7.64182582e-03 -3.40659288e-03 6.28384063e-03 2.06282060e-03
    -7.62717938e-03 -3.31446785e-03 6.40140707e-03 -1.25172706e-02
    7.98480492e-03 4.52045724e-03 -1.63659267e-02 1.48286682e-03
    -9.14193632e-04 -9.70378611e-03 -3.56437638e-04 5.69799049e-05
    9.89921018e-03 8.27732962e-03 3.56153492e-03 1.55487403e-04
    5.71055943e-03 -1.35916588e-03 -5.39908558e-03 1.02630788e-02
    8.89027398e-03 1.23107620e-02 1.39407590e-02 9.51627549e-03
    8.58173519e-03 -4.83550457e-03 5.41481096e-03 -1.72404833e-02
    6.06974168e-03 1.26579618e-02 1.72841444e-03 -5.72819868e-03
    -4.21673711e-03 -1.48033677e-02 1.18654286e-02 5.77705214e-03
    3.06776632e-03 7.62683293e-03 6.28890237e-03 -5.78559237e-03
    -6.79057033e-04 -1.66716764e-03 -9.97303240e-03 5.87148312e-03
    -1.32035362e-02 -3.25518637e-03 6.66359020e-03 4.70561115e-03
    1.36425970e-02 1.47680817e-02 4.33246139e-03 1.63853783e-02
    1.06909564e-02 6.24439772e-03 1.87595165e-03 2.56631151e-03
    -4.97897342e-03 4.20341222e-03 -2.64327577e-03 -2.12409580e-03
    1.56760849e-02 2.74000056e-02 -6.86744228e-03 2.22308724e-03
    -2.40846933e-03 1.34979719e-02 -6.84568472e-03 -8.13862600e-04
    -5.41982707e-04 -1.82450679e-03 -2.39048526e-03 -9.58520733e-03
    -7.69109651e-03 -1.29324067e-02 -4.61428688e-04 -4.34954371e-03
    -5.48273092e-03 7.36687379e-03 -9.02931951e-03 9.72888549e-04
    3.78198805e-04 1.24227684e-02 6.74511073e-03 -1.25052072e-02
    -1.02835707e-02 -1.00298936e-03 1.09706149e-02 1.51768262e-02
    1.13763902e-02 -6.77200558e-04 4.94429469e-03 -1.09380961e-03
    4.16200934e-03 1.06892176e-02 1.64461154e-02 2.68152673e-02
    -4.13114700e-04 -3.16480687e-03 -7.27504073e-03 1.31438265e-03
    4.96920838e-04 -3.72474344e-04 -1.38917798e-02 -1.29155833e-02
    1.18329637e-02 -6.90069655e-03 -7.28246756e-03 -1.35665052e-02
    -1.22225974e-02 1.00155892e-02 1.28754331e-02 -7.78027519e-04
    -8.30695790e-05 1.82006694e-02 -1.17388004e-02 -2.22482234e-02
    -5.22786286e-03 5.64424612e-04 -5.35667129e-03 6.50802394e-03
    1.03573315e-02 8.67230631e-03 1.82196479e-02 1.23239050e-04
    -1.38742123e-02 -1.33394208e-02 -8.65920540e-03 -2.88412208e-03
    -9.37255565e-03 -9.54810064e-03 -7.62537029e-03 2.82241846e-03
    1.54635711e-02 -1.32900914e-02 9.83953287e-05 5.01759956e-03
    9.03534424e-03 5.95790753e-03 -1.40510721e-03 7.53571745e-03
    1.82056054e-02 -1.33559748e-04 -1.43729395e-03 5.15303621e-03
    1.02405092e-02 6.30598329e-03 -9.87583399e-03 -1.38701135e-02
    -1.60526689e-02 2.44935713e-04 -3.49882268e-03 2.23355112e-03
    -2.17702873e-02 -1.33656338e-02 8.16667080e-03 4.14478034e-03
    -1.25327790e-02 -1.01966420e-02 -7.15154549e-03 1.40384855e-02
    -1.14659052e-02 -2.07045097e-02 1.67043135e-02 1.76937021e-02
    1.94623414e-02 1.17425984e-02 3.31904809e-03 -1.19803241e-03
    -9.08360351e-03 -1.76582113e-02 3.12774652e-03 3.20173101e-03
    6.46984484e-03 4.05299105e-03 -1.01387044e-02 -6.44004438e-03
    -3.40777193e-03 7.26501876e-03 -1.10485395e-02 5.68250474e-03
    6.02819724e-03 1.65305734e-02 1.15398038e-02 -4.42717923e-03
    -4.69155749e-03 -4.78782319e-03 1.03848102e-02 -8.93937424e-03
    2.46172282e-03 2.30654776e-02 2.14234404e-02 1.66070480e-02
    4.55583306e-03 -7.79800536e-03 -6.46654190e-03 -4.47580405e-03
    7.43526639e-03 2.60630809e-03 2.08403245e-02 1.00875981e-02
    2.25343090e-03 -1.29264463e-02 -2.51238141e-02 -2.15040371e-02
    -1.38581255e-02 7.40778865e-03 5.79023873e-03 4.25406778e-03
    8.30185227e-03 7.66403181e-03 -2.70186603e-04 -1.34889409e-02
    -5.60883386e-03 1.06964102e-02 5.20275859e-03 2.53824866e-03
    1.12171154e-02 -5.63695421e-03 -7.27671990e-03 -3.11604962e-02
    -4.53753769e-02 -3.27457488e-02 -1.23324245e-03 1.30497478e-02
    1.17728310e-02 1.00650769e-02 2.85465576e-05 1.36923767e-03
    -1.46233700e-02 -2.93435231e-02 -2.21701059e-02 -5.25944633e-04
    1.88255254e-02 1.06464364e-02 1.53659465e-04 -4.93013673e-03
    1.12771671e-02 7.84657896e-03 -1.22657716e-02 -1.38539169e-02
    -2.10716901e-03 9.72045492e-03 3.73497559e-03 1.83033403e-02
    5.52932126e-03 -3.80289555e-03 -2.70102099e-02 -3.11593898e-02
    -1.72889438e-02 1.28323389e-02 5.35474974e-04 -4.88983514e-03
    9.67381522e-03 -2.03632494e-03 -5.85805159e-03 -8.03640857e-03
    -1.84157714e-02 -1.65993739e-02 5.87944454e-03 -1.32489549e-02
    1.53746996e-02 -5.39877638e-03 -1.98362172e-02 -1.28253838e-02
    3.04373400e-03 -3.33379698e-03 2.15321803e-03 -3.96837434e-03
    1.86794400e-02 1.86369419e-02 8.21915828e-03 -5.89494780e-03
    -2.84061842e-02 -3.22677307e-02 -1.88267734e-02 2.25657225e-03
    -7.11668632e-04 3.32956128e-02 2.40124017e-03 1.60358439e-03
    -1.06332758e-02 -1.39931906e-02 5.87606570e-03 -7.36195501e-03
    -9.62747261e-03 1.90412859e-04 5.58736874e-03 2.11074646e-03
    -2.17267149e-03 -4.12710616e-03 -1.46488547e-02 -1.15544982e-02
    -2.16889791e-02 1.97294522e-02 5.22199972e-03 7.13133905e-03
    5.73119661e-03 1.51481675e-02 1.79612394e-02 -1.93170980e-02
    -3.52180749e-02 -1.09111965e-02 8.04314204e-03 1.25151454e-03
    2.64643691e-02 6.03773072e-03 1.46882981e-02 2.55070850e-02
    2.47768738e-04 -1.08674653e-02 -1.24951908e-02 -9.50296223e-03
    -9.16504860e-03 1.10259596e-02 1.57972518e-03 9.24469996e-03
    2.22547818e-03 -1.32193128e-02 -9.87642445e-03 -3.96317942e-03
    1.20713506e-02 -3.10853054e-03 5.56059228e-03 -7.95812812e-03
    1.01375841e-02 9.19279549e-03 2.02832191e-04 8.62402841e-03
    2.92605371e-03 -1.43235931e-02 -2.00534072e-02 3.03956447e-03
    5.96205331e-03 2.25006063e-02 1.04005858e-02 7.20499083e-03
    2.00295709e-02 -4.43027820e-03 -4.45160363e-03 -3.71475494e-03
    9.95506532e-03 -1.14409989e-02 8.34278576e-03 -2.13551708e-03
    -9.67546180e-03 1.13591244e-02 1.39941322e-02 1.30042154e-02
    -1.07151968e-02 -1.32498266e-02 -4.08073841e-03 1.40301762e-02
    6.71476359e-03 -6.09063776e-03 8.02969560e-03 -5.19399717e-03
    -2.62235459e-02 -2.90982462e-02 7.24742981e-03 -3.39678343e-04
    4.93938103e-03 -6.45479094e-03 -1.60993226e-02 1.96676925e-02
    1.47633329e-02 -1.26983155e-04 -1.48029458e-02 -1.35432892e-02
    2.92584533e-03 6.71343924e-03 -3.00191059e-05 -4.37447755e-03
    3.57827637e-04 9.67957173e-03 1.19748898e-02 2.19832547e-03
    1.00999847e-02 8.68195947e-03 2.24148147e-02 1.31014166e-02
    -1.03771861e-03 1.33723551e-02 -2.08798964e-02 -8.83946009e-03
    4.56955517e-03 3.78438993e-03 -7.80533068e-03 1.17605086e-02
    8.36348068e-03 9.45806969e-03 9.99225769e-03 2.60778554e-02
    1.05322273e-02 4.60752845e-03 -1.52619090e-02 1.65311957e-03
    2.22009178e-02 2.93995626e-02 -6.68062223e-03 1.07653602e-03
    -3.79662146e-04 -5.39880013e-03 4.62140422e-03 -1.05743892e-02
    2.99910572e-03 1.30724581e-02 5.30915568e-03 5.16161975e-03
    2.96609150e-03 -1.84638368e-03 -1.03046177e-02 6.72367821e-03
    -1.48744099e-02 -4.01448226e-03 -4.30314569e-03 5.03739633e-04
    2.79600676e-02 4.57089022e-03 5.50816418e-04 -1.27953626e-02
    1.00502009e-02 -1.39795896e-02 -2.12991773e-03 8.56533274e-03
    8.48535448e-03 -1.86065901e-02 -9.73797217e-03 -1.99653627e-03
    2.72500562e-03 1.93180256e-02 1.42983033e-03 -6.34663925e-03
    6.63928734e-03 -5.68265654e-03 5.81998145e-03 -9.91302822e-03
    8.62712506e-03 1.35801518e-02 4.07291902e-03 -1.94900893e-02
    4.28557303e-03 -8.17372650e-03 -5.43361017e-03 1.41951768e-02
    1.21812457e-02 1.12912571e-02 1.36171523e-02 1.20132053e-02
    -3.41166183e-03 1.20515451e-02 1.32651739e-02 6.99288212e-03
    1.20297335e-02 4.12418768e-02 2.96192113e-02 1.81352776e-02
    7.62668950e-03 1.55494297e-02 -6.45590900e-03 -1.94233516e-03
    3.36386054e-03 4.36445838e-03 1.06708249e-02 1.53849749e-02
    1.46908667e-02 1.73204648e-03 -1.39887305e-02 -3.31883715e-03
    8.61011539e-03 8.14349274e-04 1.05366334e-02 3.42360809e-02
    1.81963108e-02 -8.28729011e-03 -1.59547832e-02 -1.23514356e-02
    2.08971929e-03 6.64944388e-03 2.04061484e-03 -1.44595141e-02
    4.45302622e-03 1.75240375e-02 1.47262942e-02 6.07826980e-03
    9.75273643e-03 -5.01508417e-04 8.90672579e-03 4.47305990e-03
    -9.40332096e-03 -1.16194990e-02 2.02749036e-02 4.33653127e-03
    -7.61067821e-03 4.64172801e-03 -2.07402445e-02 -2.51924922e-03
    -1.68005023e-02 -1.81505282e-03 5.82414959e-03 1.78544465e-02
    -8.66970234e-03 -1.49709871e-02 -1.71521977e-02 -4.17408859e-03
    1.17883477e-02 6.01536362e-03 -3.82862781e-04 -5.73403027e-04
    2.82749310e-02 9.34103876e-03 5.25028678e-03 7.36535434e-03
    5.54822991e-03 -1.13961892e-02 4.20149462e-03 8.96572659e-04
    -1.79865565e-02 1.12650311e-02 -6.18696213e-03 -1.69426575e-02
    1.47561207e-02 -1.35189621e-03 -1.43260472e-02 -8.82244762e-03
    -5.16486494e-03 3.56113800e-04 1.39114419e-02 1.09333908e-02
    -1.67248417e-02 1.73287299e-02 5.15439970e-05 -1.38381473e-03
    8.35513975e-03 -9.60735604e-03 -2.15468835e-02 1.43257342e-02
    2.28308514e-03 2.83909426e-03 1.82029363e-02 -1.42291971e-02
    -2.06372086e-02 -1.14640137e-02 -4.30554990e-03 -1.08210482e-02
    1.15347458e-02 -1.40338833e-03 8.31157714e-03 1.97874513e-02
    -1.36762660e-03 -4.94466163e-03 -1.12204617e-02 -1.75008513e-02
    -1.61353461e-02 1.40948163e-03 4.91082389e-03 -1.08122369e-02
    5.18736709e-03 -1.62375104e-02 -1.01285689e-02 5.22934273e-03
    -3.45145963e-04 -1.36301499e-02 6.25276845e-03 -9.40697361e-03
    2.87345774e-03 1.44868041e-03 -7.32013909e-03 -1.13341305e-02
    -1.03771789e-02 3.75603762e-04 -1.18029593e-02 4.13242495e-03
    8.16463679e-03 1.08655021e-02 1.93452481e-02 -9.98654519e-04
    -7.04099424e-04 1.31650083e-02 2.71753711e-03 -1.10983476e-03
    4.51945793e-03 8.21851718e-04 -3.94430012e-03 6.66159578e-03
    -2.44522542e-02 -1.52888587e-02 -4.89130709e-03 -3.96912079e-03
    -2.09912062e-02 6.95165526e-03 -9.09508765e-03 7.34915351e-03
    -2.79477821e-03 -1.25638898e-02 -9.36263800e-03 1.32132508e-03
    3.18499585e-03 1.33367060e-02 -3.54927173e-03 3.27779725e-03
    -4.32830025e-03 -7.68241240e-03 -1.43871550e-02 -1.41109927e-02
    4.76106908e-03 3.72230844e-03 -7.25551881e-03 4.65563545e-03
    -2.71838042e-03 1.46217016e-03 3.18867294e-03 2.95756035e-03
    2.63266498e-04 1.00813815e-02 5.96527150e-03 -9.68015636e-04
    6.01500273e-03 -1.02428766e-02 -2.08705175e-03 1.44993945e-03
    7.62581034e-03 6.01613522e-03 1.53912455e-02 -5.71867777e-03
    -7.93192908e-03 -1.31251235e-02 -4.61169286e-03 1.89291220e-03
    5.22407191e-03 7.63550121e-03 -9.87188052e-03 -2.99351523e-03
    -1.04893316e-02 -1.08795974e-03 -8.97429977e-03 -1.23465015e-02
    -2.05583381e-03 4.22290992e-03 7.53359031e-03 1.70652682e-04
    2.41489979e-04 -1.60556044e-02 -2.28985213e-02 2.98371189e-03
    -1.21835116e-02 -1.42847868e-02 7.21005374e-04 6.52927859e-03
    7.58702960e-03 -1.74205899e-02 -2.51193326e-02 5.28769149e-03
    3.33162723e-04 -2.28554732e-03 -1.41700013e-02 3.56322131e-03
    -5.37950546e-03 3.16204764e-02 1.40777584e-02 2.52452865e-02
    3.24847139e-02 3.49535956e-03 -1.17260171e-02 1.48811210e-02
    -1.05448375e-02 5.78956632e-03 2.89683398e-02 1.67001523e-02
    2.08484381e-02 2.54332945e-02 3.88471386e-03 -2.13027783e-02
    7.65510602e-03 -1.26551464e-02 -3.42446640e-02 2.20201258e-02
    1.67388674e-02 1.98274106e-02 1.49188545e-02 -1.79833304e-02
    -3.77984829e-02 -8.86154734e-03 -3.40408310e-02 -2.73351353e-02
    1.52816493e-02 1.35629973e-03 -6.41248596e-04 -2.36653187e-03
    -1.31881032e-02 -3.67599465e-02 -1.19270077e-02 -2.31381636e-02
    -2.43071024e-03 3.40327024e-02 -2.43681297e-03 2.29929970e-03
    1.27372844e-02 1.96566296e-04 -9.25069954e-03 1.53536359e-02
    -1.32054193e-02 -8.63994285e-03 3.47423032e-02 -1.26031332e-03
    -3.71565856e-03 -1.41110783e-03 4.56712488e-03 1.03393514e-02
    2.81707905e-02 -2.68981233e-02 8.67072376e-04 3.20749767e-02
    8.13490420e-04 -3.48240091e-03 -3.27984337e-03 -6.15214184e-03
    -2.35342700e-02 -5.98808192e-03 -1.44298868e-02 -7.03049265e-03
    3.24805267e-02 4.35274886e-03 1.69997830e-02 7.09154923e-03
    7.91486539e-03 3.29714711e-03 8.87196045e-03 -1.06111737e-02
    -4.02077241e-03 3.37406695e-02 8.03798146e-04 1.41853699e-03
    -9.71744210e-03 1.97755918e-03 8.33196007e-03 2.74748933e-02
    -1.45609851e-03 -1.31368134e-02 2.23071892e-02 -6.54402608e-03
    -1.71142071e-03 -1.21192262e-02 -1.13928989e-02 -7.19091017e-03
    1.08683677e-02 -1.00357002e-02 2.82087742e-04 2.49199923e-02
    1.72934553e-03 1.94179278e-03 1.32105090e-02 3.32791382e-03
    3.79711133e-03 2.21181214e-02 -2.90668919e-03 4.15648101e-03
    2.64855921e-02 -1.15228556e-02 -1.24986600e-02 -2.16053966e-02
    8.69917590e-03 1.38457085e-03 2.77363341e-02 4.14624158e-03
    -8.87834560e-03 9.35457740e-03 -1.13839442e-02 3.58762965e-03
    6.91934722e-03 -8.85816384e-03 -3.97258252e-03 7.98755232e-03
    -6.12685597e-03 -2.26752814e-02 1.15496367e-02 -1.21639920e-02
    3.82152828e-03 -2.16066837e-03 -1.62883904e-02 -7.22030643e-03
    1.03786448e-02 -2.98939701e-02 7.35208392e-03 1.59759540e-02
    -7.31366081e-03 -1.46134924e-02 -1.39998812e-02 -1.77557189e-02
    -2.14867964e-02 8.52026604e-03 -3.56324692e-03 -2.10286700e-03
    8.67624208e-03 -6.89184526e-03 8.17187887e-04 -2.60319421e-03
    -1.23454165e-02 -8.46626516e-03 2.57802457e-02 6.84424071e-03
    8.57881154e-04 1.03503102e-02 1.22808700e-03 5.82520710e-03
    3.53122782e-03 -8.06609262e-03 -1.43760061e-02 1.53370537e-02
    -1.33705884e-02 -3.18893301e-03 2.23474298e-02 -1.02261685e-04
    1.96217597e-02 -8.55799578e-03 -6.33291109e-03 -4.56775445e-03
    1.30103966e-02 -6.29404560e-03 1.56296149e-03 1.14837317e-02
    -2.06190832e-02 -3.60019412e-03 -1.80499465e-03 -1.08995931e-02
    -7.53375096e-03 2.19305307e-02 -3.08688940e-03 -1.50948940e-02
    -6.35953806e-03 -1.75246112e-02 2.68184990e-02 -7.51035847e-03
    -4.56541963e-03 -2.75608082e-03 1.58418808e-02 -1.34612797e-02
    1.62068289e-02 1.90799460e-02 1.00542447e-02 1.85075812e-02
    6.09826203e-03 -9.04702302e-03 -4.41172952e-03 1.65549610e-02
    1.01943016e-02 1.18961288e-02 6.05728896e-03 7.22472044e-03
    1.90392081e-02 2.89815646e-02 -6.88052364e-03 -6.35226350e-03
    1.67205604e-03 -3.83837498e-04 -1.50935594e-02 3.46597400e-03
    -6.47088559e-03 1.74148325e-02 -1.10125234e-02 -2.47811601e-02
    -9.89053212e-03 1.19273283e-03 -1.67804062e-02 -1.18876053e-02
    -1.31851761e-02 -1.03581110e-02 -6.48583751e-04 1.95435081e-02
    6.38508238e-03 -5.36146387e-03 1.39158731e-02 -8.61664210e-03
    6.35537924e-03 -1.36515535e-02 -2.50382791e-03 5.24150301e-03
    1.59893669e-02 3.29649216e-03 1.58362894e-03 1.25192832e-02
    5.09560714e-03 -1.42451311e-02 -6.98699802e-03 -1.28723839e-02
    3.23826261e-03 -1.43018020e-02 -2.09998409e-03 5.31350682e-03
    3.47070582e-02 6.46882085e-03 -5.31554222e-03 -2.73496425e-03
    -4.67669731e-03 2.24866788e-03 2.10086424e-02 2.59130518e-03
    -1.41177187e-02 1.14613671e-04 -6.78298902e-03 -6.62138453e-03
    4.57076542e-03 9.64085199e-03 7.13696145e-03 -8.38489458e-03
    -5.11873746e-03 -1.29048275e-02 2.12117918e-02 -1.61722507e-02
    7.85207096e-03 -5.81285125e-03 -1.13559840e-02 -6.24068640e-03
    -6.43007364e-03 3.22605134e-03 -3.68055492e-03 2.42050588e-02
    5.28743165e-03 5.01986267e-03 -1.48866058e-03 -9.10517480e-03
    -1.14614831e-03 -6.99413521e-03 1.23447934e-02 -2.56444253e-02
    5.18546393e-03 -1.86530431e-03 -3.80327716e-03 -8.88463017e-03
    1.06659532e-02 5.49850520e-03 1.39466487e-03 9.07812733e-03
    2.96758278e-03 2.71747485e-02 -3.15222656e-03 -8.64000991e-03
    -2.59669982e-02 -1.94033247e-03 7.90685881e-03 1.64483245e-02
    1.60895512e-02 -1.23208119e-02 7.88451266e-03 -9.74515919e-03
    1.14581063e-02 -4.76347841e-03 -9.23381560e-03 -9.20104142e-03
    -1.65878199e-02 1.38834100e-02 -1.81678329e-02 2.37917136e-02
    1.07118562e-02 3.68676410e-04 8.71022511e-03 -8.55995435e-03
    -1.02325100e-02 -1.97314620e-02 2.84917676e-03 -1.96409225e-02
    3.96669209e-02 2.44209822e-02 -2.92098103e-03 -2.64080870e-03
    -3.12765338e-03 6.89881714e-03 2.18569580e-03 1.78682312e-04
    -1.80407912e-02 9.02572554e-03 -5.57297748e-03 -6.82906527e-03
    2.22715884e-02 -2.20475555e-03 -8.88448954e-03 -2.08316613e-02
    -2.48826551e-03 -2.45182291e-02 3.34211998e-02 5.08230086e-03
    -4.11871029e-03 1.88829917e-02 -5.15372632e-03 -6.02786941e-03
    3.44023388e-03 5.01400139e-03 -1.14864241e-02 4.31733206e-02
    2.89380327e-02 -1.35986623e-03 2.23493688e-02 3.02969059e-03
    1.09375315e-03 -1.40011460e-02 -1.44405970e-02 1.03193132e-04
    3.12917605e-02 1.08394288e-02 -1.56396965e-03 1.95722617e-02
    -6.44812500e-03 -6.59628399e-03 -4.49901819e-03 2.16616727e-02
    5.07326191e-03 3.57014425e-02 1.42250387e-02 -2.83257407e-03
    1.40496967e-02 -6.34864951e-03 3.54306051e-03 -2.01467797e-02
    -1.52219394e-02 -6.59320364e-03 2.41661910e-02 1.85141172e-02
    1.93153729e-03 1.73430443e-02 -5.50298207e-03 -1.81371979e-02
    -9.74724814e-03 -1.14585059e-02 -5.69568994e-03 1.73820369e-02
    4.12932876e-03 2.40582181e-03 7.55221862e-03 -1.23857288e-02
    -2.79081549e-04 5.65565948e-04 2.18013264e-02 5.42804319e-03
    9.93850827e-03 2.25013052e-03 9.41453781e-03 1.38867507e-02
    -4.29204246e-03 -4.61092364e-04 -9.48129967e-03 -1.24075189e-02
    -7.73880724e-03 1.98588818e-02 1.44203575e-02 2.10855138e-02
    1.51221380e-02 -1.03081698e-02 1.26714129e-02 2.55863722e-02
    2.33516246e-02 4.97141574e-03 9.79363453e-03 -3.77121777e-03
    1.29820146e-02 -9.43334540e-04 -1.00476220e-02 4.90074093e-03
    2.09640455e-03 1.73925459e-02 6.48357812e-03 1.00685954e-02
    1.23430351e-02 -1.30448211e-03 2.04265583e-03 3.87465139e-03
    2.55884067e-03 -3.09082493e-03 9.50303674e-03 -7.10323919e-03
    1.31381629e-02 -8.65237322e-03 3.07680182e-02 6.76706992e-03
    -2.00468861e-02 -7.69929320e-04 -2.45292624e-03 1.33615490e-02
    8.90348398e-04 7.54292938e-04 -7.60677550e-03 1.91389639e-02
    1.14704557e-02 -4.59400052e-03 -7.96982273e-03 -1.12101426e-02
    -1.64777855e-03 -2.66277287e-02 9.47590824e-03 -1.26513059e-03
    1.08268615e-02 7.09905289e-03 8.23021214e-03 -5.99534437e-03
    9.87721328e-03 8.27296823e-03 -1.32551175e-02 3.33252288e-02
    1.39296493e-02 6.24765549e-03 1.00483382e-02 4.76051681e-03
    -9.63857025e-03 1.02625061e-02 5.50468336e-04 -1.91660747e-02
    2.32620426e-02 9.34475288e-03 1.56554282e-02 1.78312212e-02
    1.99801964e-03 -5.44378255e-03 5.85481944e-03 3.44386767e-03
    -1.51461577e-02 2.24316511e-02 1.32055013e-02 1.33441044e-02
    3.60269728e-03 -1.37118297e-02 -1.21620251e-02 -1.19118672e-02
    -1.32443141e-02 -7.81449210e-03 2.17092708e-02 2.42476985e-02
    7.58537138e-03 6.58549042e-03 2.26164353e-03 -6.25326810e-03
    -9.45775304e-04 2.84398557e-04 -7.45862024e-03 1.46091487e-02
    5.77587727e-03 4.93922271e-04 4.97823860e-03 1.85954291e-02
    1.34100141e-02 1.58125497e-02 6.80013048e-03 1.22511173e-02
    7.79600488e-03 -1.54111385e-02 2.58460771e-02 2.74487189e-03
    -6.60085911e-03 -1.57948602e-02 -3.73682450e-03 -7.70553946e-03
    -9.79181007e-03 2.23338641e-02 2.48267539e-02 2.23741867e-02
    4.56150714e-03 1.05042858e-02 6.05122279e-03 9.82539821e-03
    7.96461571e-03 9.09132510e-03 1.34452730e-02 1.36362426e-02
    2.79183965e-03 2.09024432e-03 9.81571525e-03 1.79279279e-02
    9.58779082e-03 1.79128814e-03 9.00315680e-03 4.37419768e-03
    -1.10045876e-02 6.64967252e-03 3.04471166e-03 -1.97913009e-03
    2.00067632e-04 -5.77592198e-03 4.65484249e-04 -7.74884457e-03
    9.80099477e-03 5.34594199e-03 1.74205620e-02 1.58233717e-02
    1.17113022e-02 9.90765542e-03 3.24400025e-03 4.77756094e-03
    5.97172091e-03 1.00530898e-02 5.44473622e-03 1.85136441e-02
    1.11130029e-02 -5.95868914e-04 6.56506838e-03 -1.69545617e-02
    7.55364122e-03 -1.33298375e-02 -7.66987505e-04 1.29388096e-02
    5.38252806e-03 -1.22249108e-02 -2.73478846e-03 -8.66725866e-04
    1.15237506e-02 7.48984376e-03 1.25003047e-03 2.26996746e-03
    -6.45433459e-03 2.09613191e-03 -1.14084976e-02 -4.83896025e-03
    6.94084819e-03 -3.32709844e-03 3.03257536e-03 8.53420421e-03
    1.07804313e-02 -1.49691217e-02 2.82730982e-02 -1.28156703e-03
    -3.98532487e-03 7.86521565e-03 5.26772207e-03 -2.59391870e-03
    -5.43662161e-03 -1.29527766e-02 4.05335845e-03 1.84144359e-02
    2.45901701e-05 -1.22394050e-02 8.32484663e-03 -2.10730243e-03
    -7.02170189e-03 5.89520019e-03 1.54768359e-02 7.01584620e-03
    -6.49196329e-03 -1.70247983e-02 -7.02309189e-03 1.03420448e-02
    6.35497551e-03 -1.49228633e-03 1.78994276e-02 2.25503333e-02
    -3.87219409e-03 8.72438250e-04 2.43575010e-03 1.51067078e-02
    1.63687076e-02 4.90611373e-03 -3.20742955e-03 1.13296611e-02
    1.84455290e-02 1.86761958e-03 4.33213217e-03 -8.36817722e-04
    1.31014700e-03 1.50628537e-02 9.16801486e-03 7.44886883e-03
    1.47506455e-02 1.77913625e-02 -1.02764377e-02 4.61634202e-03
    8.79527163e-03 -2.12756172e-03 1.49752926e-02 2.90288078e-03
    4.10424219e-03 1.14319362e-02 1.08928839e-02 -1.47192506e-02
    1.06152706e-03 5.83033590e-03 1.63254272e-02 1.89518500e-02
    1.08231781e-02 3.49296629e-03 1.59011241e-02 9.52122174e-03
    -4.70634690e-03 -1.45113072e-03 1.02337066e-03 9.04857833e-03
    2.06365641e-02 1.40990755e-02 5.02964901e-03 8.03452358e-03
    2.16486258e-03 -1.57192647e-02 1.57623589e-02 1.39822904e-02
    -1.04655065e-02 1.82992537e-02 -6.33814605e-03 -1.03949383e-02
    4.27082507e-03 1.26780453e-03 7.31946842e-04 3.65520921e-03
    8.53383821e-03 -9.24433209e-03 7.17370072e-03 6.44081738e-03
    -7.44376797e-04 1.91534851e-02 1.14826532e-02 -6.28018926e-04
    -1.21426827e-03 5.76265575e-03 1.39441164e-02 1.69552118e-02
    2.95728631e-03 -5.39199542e-03 3.88760562e-03 5.46358898e-03
    -3.07508372e-03 1.64459255e-02 4.71244799e-03 1.19773485e-02
    1.02936868e-02 5.41198719e-03 -4.08534845e-03 1.65423881e-02
    -6.40468672e-04 -2.81789515e-04 3.47943651e-03 1.50638148e-02
    3.11081589e-04 7.32574472e-03 1.99051807e-03 7.17153726e-03
    1.00949435e-02 8.81933421e-03 3.23891034e-03 7.89277349e-03
    1.07240053e-02 6.27421169e-03 1.52125377e-02 5.34729054e-03
    7.77282007e-03 1.13735069e-02 -4.70966846e-03 -2.78299884e-03
    -5.66243543e-04 -2.18193582e-03 -5.12484182e-03 7.18361791e-03
    -9.94835701e-03 6.62215473e-03 1.82835013e-02 -1.12246256e-03
    -1.33739244e-02 -8.38557165e-03 -9.30383895e-03 6.40452420e-03
    1.25874579e-02 -1.38666984e-02 4.46280523e-04 8.19636509e-03
    -1.75126828e-03 -1.22654177e-02 5.89841604e-03 3.80019005e-03
    1.06766364e-02 9.87165701e-03 -1.15844188e-02 2.18512816e-03
    8.61489959e-03 -8.97101779e-03 -8.29498004e-03 9.44005791e-03
    6.86818361e-03 9.40416288e-03 2.79685147e-02 -1.32432086e-02
    5.33102360e-03 -6.30245777e-03 -2.17704219e-03 1.04249232e-02
    5.54390578e-03 -1.13479374e-02 1.15927756e-02 1.04562668e-02
    -4.15717205e-03 -3.61376372e-03 -7.46140582e-03 -1.20992074e-03
    1.44427316e-02 1.10207386e-02 8.24784569e-04 1.48223657e-02
    1.23311253e-02 -9.46720829e-04 -2.89170258e-03 -1.13815684e-02
    -9.81498323e-03 2.59164069e-02 1.09361941e-02 9.73235525e-04
    9.05584637e-03 1.00965463e-02 7.59368716e-03 3.03621776e-03
    -1.34684369e-02 -3.70491948e-03 1.04788514e-02 5.53550711e-03
    1.40835403e-03 1.25398207e-02 7.35101895e-03 8.79724231e-03
    4.22871299e-03 -2.53170840e-02 -2.18875892e-02 3.98364943e-03
    9.34394368e-04 -3.77328089e-03 7.42524303e-03 1.46078123e-02
    -9.02110524e-03 8.54662433e-03 2.51884921e-03 1.39139732e-03
    1.30891716e-02 -1.11810770e-02 -1.23186614e-02 -3.20101134e-03
    1.42844152e-02 -6.40255259e-03 8.15221760e-03 2.11470108e-02
    7.66706653e-03 7.53575889e-03 1.01206908e-02 -1.48814460e-02
    5.35765255e-04 -3.17395967e-03 -3.88455810e-03 1.66371129e-02
    -1.87756307e-03 -1.02410670e-02 6.04929356e-03 1.98577102e-02
    -9.53981560e-03 6.95626670e-03 3.56230047e-03 9.66582354e-03
    1.78046990e-02 1.85339767e-02 -4.79594991e-03 1.79049615e-02
    -1.01059368e-02 3.58587550e-03 3.83315422e-03 1.25326635e-02
    -1.45076113e-02 -1.65532734e-02 1.96187082e-03 -2.56200880e-03
    4.14939970e-03 -1.94402854e-03 6.83373073e-03 2.01638062e-02
    1.57486107e-02 6.19089697e-03 -1.06888600e-02 -5.59838768e-03
    -1.86439082e-02 6.79817423e-03 1.02724899e-02 2.62231193e-03
    -2.04015523e-03 2.04648380e-03 -1.13149360e-02 4.49580746e-03
    1.26521187e-02 6.52466726e-04 1.12401126e-02 9.01426421e-04
    1.00333039e-02 1.37688499e-03 4.17215889e-03 4.22559725e-03
    6.80301921e-04 -6.04829751e-03 -9.17516463e-03 9.66608990e-03
    4.57439059e-03 8.51906091e-03 1.55625856e-02 6.98349206e-03
    -3.40472689e-05 -7.41787313e-04 -1.51845720e-03 -9.81247425e-03
    1.40043963e-02 1.75221898e-02 1.02493558e-02 7.99465645e-03
    -4.55985963e-03 -1.37405228e-02 -5.41200489e-03 3.15616257e-03
    6.96729636e-03 5.15719643e-03 5.50244702e-03 4.21598274e-03
    1.16137723e-02 9.68751218e-03 6.67192042e-03 3.74172535e-03
    1.72561896e-03 8.84989393e-04 1.22289974e-02 -1.12468181e-02
    -9.52061825e-03 3.56987561e-03 -1.76728657e-03 -5.63682988e-04
    -3.76441958e-03 -8.23294558e-03 -4.90659010e-03 -8.87154788e-03
    1.06641455e-02 2.01790947e-02 5.74765308e-03 2.69830023e-04
    -3.54061089e-03 1.10499104e-02 5.80118876e-03 1.55451028e-02
    -6.84340810e-03 -3.77076818e-03 9.60029662e-03 1.30774966e-02
    5.12272725e-03 -1.98183767e-03 8.86607729e-03 3.66175803e-03
    1.62418261e-02 -1.26605737e-03 -2.30694120e-03 -1.18979188e-02
    -4.42127697e-03 -3.91827384e-03 -2.29167519e-03 4.85587725e-03
    -1.61219400e-03 -2.80499551e-03 -8.23383592e-03 -9.49625578e-03
    -8.24022759e-03 1.37571816e-03 2.61343736e-03 -5.77334547e-03
    -3.75868566e-03 -2.51100049e-03 1.19399866e-02 1.91718026e-03
    -4.52519534e-03 1.54788317e-02 1.47834634e-02 5.76389441e-03
    2.26249243e-03 -4.07451903e-03 4.84405737e-03 2.41100751e-02
    1.98114123e-02 3.45043954e-04 2.05362067e-02 4.13296791e-03
    -1.06485269e-03 -1.65153202e-02 -3.37180011e-02 -1.47224749e-02
    1.29158162e-02 1.23139350e-02 2.87898770e-03 1.78879555e-02
    1.49674527e-02 9.70823132e-03 -7.72280851e-03 -7.97602721e-03
    4.08343598e-03 1.79460235e-02 7.31980568e-03 6.13090675e-03
    8.66875518e-03 1.09022006e-03 -2.53928429e-03 -1.35602402e-02
    -6.97360886e-03 1.19979093e-02 5.99324983e-03 2.15728837e-03
    2.12429510e-03 2.57161912e-02 2.13466771e-03 -7.27290334e-03
    -2.08575968e-02 -2.15565935e-02 -1.23719592e-02 1.03482902e-02
    2.43253759e-04 8.57239403e-03 9.01177712e-03 -7.72101851e-03
    -1.66798774e-02 -9.32758767e-03 -1.08001968e-02 4.53765551e-03
    2.03306414e-02 1.15670199e-02 1.41919439e-03 1.28050568e-02
    4.35965974e-03 -4.85536875e-03 -7.65919918e-03 -4.27304348e-03
    -3.57052870e-03 3.26431892e-03 -8.77501629e-03 -1.89656031e-03
    2.26742192e-03 1.29379821e-03 -3.45842144e-03 -1.03458520e-02
    -1.14979446e-02 2.35247615e-04 1.06851216e-02 -1.31969294e-02
    -7.43055061e-05 -1.60164628e-02 -2.05790438e-02 -1.78092234e-02
    -5.94772631e-03 -4.93835483e-04 1.01992209e-03 8.00149515e-03
    1.87878571e-02 3.61066381e-03 -1.41667319e-03 -6.62970450e-03
    -5.46286209e-03 -1.21793123e-02 4.19606629e-04 7.23853661e-03
    8.12491577e-04 9.14320722e-03 -1.14665711e-02 -1.56886224e-02
    -7.41734030e-03 -5.64663531e-03 -2.15567667e-02 -2.56991736e-03
    5.85354515e-04 -4.94275847e-03 -4.25599795e-03 -5.81238978e-03
    1.79060339e-03 -6.06030878e-03 -1.36932964e-02 -9.42088850e-03
    5.68933832e-03 1.12527013e-02 -2.02476494e-02 1.54802925e-03
    2.89523904e-03 2.77392985e-03 -1.27478214e-02 -7.93099590e-03
    1.44064671e-03 1.11255068e-02 -3.11799906e-03 -3.32706072e-03
    6.34525996e-03 -2.32779793e-03 8.12453590e-03 3.82634159e-03
    -8.02951586e-03 2.12863390e-03 1.59854107e-02 -1.30098807e-02
    -1.10726571e-02 2.34416756e-03 -5.22239553e-03 -1.08212605e-02
    -1.56604256e-02 -1.65138338e-02 1.14334561e-02 1.03343204e-02
    -4.31550061e-03 -2.31934115e-02 3.76696466e-03 -9.63917933e-03
    -1.43973408e-02 -1.06612814e-03 -1.86220072e-02 9.30806343e-03
    7.58085586e-03 -1.11543704e-02 -5.80214197e-03 -8.25095549e-03
    -2.11908203e-03 3.24326660e-03 8.30126461e-03 -8.50508269e-03
    1.15846843e-03 -6.13619632e-04 -1.17339082e-02 -5.43113472e-03
    9.22174659e-03 -9.76363849e-03 -7.78936269e-03 -8.94098915e-03
    -5.95580740e-03 -4.78197937e-04 -7.43389456e-03 -1.86558370e-03
    -6.65722357e-04 -3.01119848e-03 -5.73789375e-03 -3.72630754e-03
    -3.38595896e-03 -1.15648052e-02 -7.05170073e-03 -9.59235593e-04
    5.01436135e-03 2.28357804e-03 4.24459763e-03 -4.54706373e-03
    -1.34014804e-02 2.72795814e-03 -1.92908011e-03 -1.05624236e-02
    5.89786796e-03 7.51690893e-03 1.93786342e-02 4.99507459e-03
    -3.71701689e-03 -1.40149228e-03 6.91510097e-04 7.12270755e-03
    5.96104050e-03 1.71219409e-02 9.16704535e-03 1.13911713e-02
    7.68877938e-03 -1.39268429e-03 6.53850287e-03 5.73489582e-03
    -2.67634988e-02 -1.18489861e-02 8.31067748e-03 2.10492429e-03
    1.92436241e-02 2.58956640e-03 -1.78178016e-03 -3.51239392e-03
    1.53012862e-02 5.05797751e-03 1.38009218e-02 2.16864441e-02
    1.13997078e-02 7.23059196e-03 1.54112009e-02 -1.33326156e-02
    -1.56309642e-02 -9.24923271e-03 -1.85303204e-02 -7.73018412e-03
    2.03599744e-02 -1.25176401e-03 8.97860061e-03 1.54636102e-02
    2.81828362e-03 3.29550961e-03 -4.19531576e-03 -3.51508968e-02
    1.68249686e-03 1.82283781e-02 4.19580750e-03 1.46114286e-02
    6.75723376e-03 4.37422283e-03 9.20784660e-03 -5.58352703e-03
    -1.05428183e-02 -1.72914825e-02 7.17530306e-03 -1.23011332e-03
    4.71228082e-03 -9.61310137e-03 -1.13939401e-02 -6.21349830e-03
    -1.10082133e-02 -2.18057726e-02 -8.26209690e-03 1.83781814e-02
    -7.08709192e-03 7.85363745e-03 5.52716153e-03 -4.02602833e-03
    2.41285865e-03 1.30303123e-03 -8.07218347e-03 -1.69368938e-03
    -3.98666458e-03 -2.87005119e-03 1.04583902e-02 1.69031695e-02
    5.35506383e-03 5.78720495e-03 9.65128932e-03 -6.91521494e-03
    -1.22970724e-02 -7.82994612e-04 -5.66100935e-03 -1.06095839e-02
    -2.21939199e-03 -1.91030544e-04 9.05593578e-03 -1.60429243e-03
    1.53119769e-03 -4.39609081e-04 -3.02925869e-03 -1.39304660e-02
    -6.68210024e-03 2.57939985e-03 4.86411911e-04 -2.26651272e-03
    2.84252479e-03 -9.21694469e-03 7.85382744e-03 9.37605742e-04
    -2.21762806e-03 -5.73492888e-03 1.58057995e-02 1.64996143e-02
    9.87534039e-03 9.79062868e-04 -2.90803402e-03 1.65167339e-02
    3.66326864e-03 4.36558435e-03 5.55404136e-03 9.41432081e-03
    -5.27907815e-03 -1.89397403e-03 -1.05372416e-02 3.71912331e-03
    -2.91161891e-03 -4.99903457e-03 -1.68791059e-02 -2.73450254e-03
    -1.60095328e-03 2.64388882e-03 9.66549560e-04 1.15069607e-02
    -3.52538511e-04 -5.74216200e-03 4.93873376e-03 3.84628167e-03
    6.22332562e-04 7.24355225e-03 3.32672172e-03 -1.69672631e-03
    -1.55018899e-03 -5.14062995e-04 1.69331429e-03 9.31174681e-03
    7.89682288e-03 -2.54169316e-03 1.25277704e-02 -3.08697601e-03
    2.05721217e-03 1.87159572e-02 -5.75810671e-03 9.34752263e-03
    1.64688323e-02 1.70040689e-02 -1.23683410e-03 -7.29942834e-03
    9.40370653e-03 -4.70512174e-03 1.22410916e-02 -1.00174993e-02
    -2.34076940e-02 1.74054410e-02 3.36168427e-03 3.98841500e-03
    2.54649837e-02 -7.55799189e-03 -1.78202130e-02 -5.84158394e-03
    -5.28965797e-03 -1.08867483e-02 2.20959890e-03 -1.46960942e-02
    -1.09037226e-02 1.85186975e-02 3.15491296e-03 -3.14649404e-03
    1.28127192e-03 -1.20027652e-02 -9.82225221e-03 3.24600823e-02
    1.37906605e-02 6.35553943e-03 1.70425456e-02 -1.47024579e-02
    -2.30101459e-02 -5.72314532e-03 -2.72023561e-03 -9.19801241e-04
    1.22693563e-02 -5.34986146e-03 -5.22644073e-03 1.03802215e-02
    1.47610158e-03 -1.76348556e-02 -5.45341149e-03 -3.55280191e-03
    -1.31090740e-02 -2.18223501e-03 -8.45980085e-03 -7.02105369e-03
    1.47288069e-02 2.08411133e-03 2.64760153e-03 1.13350395e-02
    -8.97637568e-03 -1.36195626e-02 -4.28877631e-03 7.26135797e-04
    -3.58622707e-03 -2.46049440e-03 -6.61943248e-03 -1.00226598e-02
    9.53365676e-03 2.13202485e-03 -4.52068448e-03 1.71026425e-03
    -7.02830218e-03 4.37524286e-04 1.20997466e-02 -7.09144224e-04
    2.97673652e-03 6.12806156e-03 -5.29715652e-03 -5.15809190e-03
    -1.11583341e-02 2.72999471e-03 1.14924014e-02 4.39741329e-04
    -4.11055004e-03 3.72587331e-03 5.67219639e-03 9.42548853e-04
    -7.96810631e-03 2.11025495e-03 5.05452789e-03 2.44086084e-04
    -3.72456922e-03 2.60130549e-03 -3.27679125e-04 1.02883540e-02
    2.23378185e-03 -1.30081717e-02 1.98174790e-02 2.56205071e-03
    1.72190685e-02 7.67684216e-03 -3.21744755e-03 1.10126124e-03
    -9.04356781e-03 2.49670260e-03 -2.61472585e-03 -3.95193510e-03
    -6.61367667e-04 -3.12287069e-04 2.04061958e-04 1.70220062e-03
    -3.13564413e-03 6.99181948e-03 2.59917765e-03 -1.07915970e-02
    4.67162207e-03 -6.76421402e-03 1.99402380e-03 -4.94819926e-03
    2.98557570e-04 3.28289368e-03 1.12168363e-03 -1.40208388e-02
    -2.08988115e-02 1.79459192e-02 1.21839356e-03 7.99198728e-03
    7.95801915e-03 -9.37776000e-04 1.79133546e-02 1.34567851e-02
    -1.15680089e-02 -4.12670849e-03 4.73790755e-03 -3.91345820e-04
    -8.98129400e-03 -6.15694933e-03 -5.78302192e-03 -5.68957627e-03
    6.68090861e-03 2.00502132e-03 -3.15393601e-03 3.85349663e-03
    -1.24211202e-03 1.29375444e-03 6.12303382e-04 -9.28434823e-03
    6.01104088e-03 1.38853658e-02 -1.02087331e-04 -1.25170322e-02
    -1.66702475e-02 7.46115856e-03 7.21534248e-03 -6.20618556e-03
    -1.13485660e-02 2.37820391e-02 1.54645527e-02 1.90705061e-02
    1.68660209e-02 -1.50984037e-03 -2.55939495e-02 1.51612721e-02
    -1.33691765e-02 2.92807724e-03 3.19297276e-02 1.21462364e-02
    6.10892707e-03 4.25167708e-03 -1.92225780e-02 -3.13922986e-02
    1.53940022e-02 -1.91771542e-03 -1.93179734e-02 1.53810643e-02
    8.48219823e-03 1.87445078e-02 4.97604441e-03 -2.02861335e-02
    -3.83458026e-02 1.75439306e-02 -3.49470181e-03 -9.74205695e-03
    2.77845096e-02 1.74103398e-02 2.48824768e-02 1.28739921e-03
    -9.82765481e-03 -2.59733759e-02 1.28421402e-02 4.30476107e-03
    -5.37762011e-04 1.50353359e-02 3.84765351e-03 -1.85122935e-03
    3.42696370e-03 -1.16955619e-02 -2.34087184e-02 9.99864656e-03
    3.60766193e-03 -4.75362595e-03 2.54711490e-02 1.66915227e-02
    1.16355298e-02 1.18299853e-02 5.08566666e-03 -3.20413825e-03
    1.43204629e-02 5.18725673e-03 -1.02333082e-02 2.09568888e-02
    9.41992458e-03 1.16386302e-02 -1.16416039e-02 -1.54080484e-02
    -2.67854091e-02 1.55138446e-03 -2.76381150e-03 -5.05666155e-03
    2.11752430e-02 -1.06783700e-03 7.61362677e-03 -2.80600730e-02
    -1.44759724e-02 -1.34638045e-02 2.04265509e-02 1.03927152e-02
    9.30434559e-04 2.58560460e-02 1.10709704e-02 3.30500398e-03
    3.93691706e-03 1.35291116e-02 5.10048447e-03 1.63951237e-02
    4.74430434e-03 -4.11997316e-03 3.52174975e-02 6.04304904e-03
    8.93651042e-03 -1.03203943e-02 -1.68378279e-03 9.21624887e-04
    1.10195326e-02 -1.47545440e-02 -1.77860241e-02 1.60982292e-02
    4.94928914e-04 6.69762865e-03 -1.37730641e-02 -7.01948535e-03
    -1.57866795e-02 2.09614690e-02 1.25175472e-02 -1.49902636e-02
    2.85292994e-02 -5.04285237e-03 3.00941058e-02 1.78209413e-02
    -5.54791605e-03 -5.64643228e-03 1.02908118e-02 -9.78922565e-03
    1.19469296e-02 2.31471974e-02 -4.06053558e-04 4.06766124e-03
    -7.24792434e-03 -1.54301496e-02 -5.58797782e-03 1.67417526e-02
    9.58988350e-03 -3.75996297e-03 -1.79149432e-03 -1.39274038e-02
    1.02836790e-03 -1.34554813e-02 -1.37037933e-02 -1.10820448e-02
    2.35914830e-02 1.00332741e-02 -1.30176013e-02 2.06797328e-02
    1.76966991e-04 1.55923022e-02 1.39169954e-02 -1.33957043e-02
    -2.18146648e-02 4.43308707e-03 -3.22989300e-02 -1.07291890e-02
    4.39864909e-03 -1.39984572e-02 -1.49158621e-03 1.69777649e-03
    -6.62947772e-03 -1.23700546e-02 4.26081987e-03 -1.55581757e-02
    -5.42490394e-04 -5.94367273e-03 -2.42491793e-02 -6.50184113e-04
    2.21927752e-04 1.45992106e-02 7.76320137e-03 2.87374370e-02
    7.38476822e-03 -9.08065122e-03 -7.10418448e-03 -1.67331640e-02
    2.16510147e-02 -8.04501865e-03 5.50791714e-03 -7.48448865e-03
    1.26852281e-02 -4.20071045e-03 -7.90595077e-03 -1.11703603e-02
    -1.30797047e-02 -5.00947051e-03 -3.74057703e-03 2.39777192e-03
    5.34421112e-03 9.70359985e-03 2.37569748e-03 1.06239850e-02
    4.54287603e-03 2.55766674e-03 8.01335741e-03 -4.03227005e-03
    5.74746542e-03 -1.38103636e-03 1.86454803e-02 1.06060915e-02
    -2.25841696e-03 1.34543027e-03 -8.21903115e-04 1.49942432e-02
    -9.46536753e-03 -7.70362094e-03 -2.68001459e-03 9.39286035e-03
    -4.43647150e-03 -2.22704303e-03 8.86452571e-03 1.04817431e-02
    2.17798743e-02 1.43240076e-02 3.83991306e-03 -4.60929656e-03
    2.04385687e-02 -7.37021212e-03 1.75426025e-02 1.07687181e-02
    1.30511355e-03 3.20454338e-03 -1.18925367e-02 -4.37703403e-03
    -5.49797807e-03 2.00457927e-02 1.17008789e-02 1.18608549e-02
    1.59317944e-02 5.09267626e-03 1.92650463e-02 1.19943293e-02
    1.05781443e-02 6.11863844e-03 2.85004526e-02 7.71096582e-03
    3.24236020e-03 1.16473073e-02 2.08092341e-03 1.10613182e-02
    1.85851697e-02 1.46755595e-02 -9.39154532e-04 9.73852258e-03
    -1.71868652e-02 -1.73880365e-02 1.40152453e-02 1.09040849e-02
    2.13331562e-02 1.13346763e-02 9.62929241e-03 -1.88784078e-02
    5.22928918e-03 -2.28019357e-02 2.04372307e-04 3.71854450e-03
    -9.97797865e-03 6.42417837e-03 8.91665462e-03 1.07091796e-02
    1.51578104e-02 1.56356189e-02 -1.96884796e-02 -1.38246017e-02
    8.76380317e-03 -7.15996977e-03 9.88683850e-03 5.11394208e-03
    2.27766205e-02 8.86818580e-03 1.35658300e-02 -7.64840003e-03
    -4.51175729e-03 3.52357485e-04 4.56873234e-03 1.74081530e-02
    1.27591426e-02 1.59190334e-02 -1.30212707e-02 2.11988445e-02
    -1.13422389e-03 -1.00119216e-02 -1.52458884e-02 -4.26792586e-03
    2.34284103e-02 4.06251242e-03 8.60744901e-03 -3.04401033e-02
    -2.01268168e-03 -1.14492374e-02 -2.42289645e-03 1.36524960e-02
    -2.75480305e-03 1.17985904e-02 -4.65115625e-03 1.28087951e-02
    -1.27362031e-02 1.39229586e-02 1.10339290e-02 -1.87516073e-03
    8.18197522e-03 -4.97378875e-03 1.04687037e-02 -1.05554275e-02
    -1.27551728e-04 -2.57589519e-02 1.16487378e-02 1.18709989e-02
    6.61314407e-04 -2.39960558e-04 -6.75263023e-03 5.28265908e-03
    6.84163242e-05 1.25185503e-02 -1.27052423e-02 2.13455781e-02
    1.68352446e-03 -7.16827717e-03 1.49576170e-02 -6.01340551e-03
    -2.42593494e-04 -3.63926701e-02 -2.75731622e-03 -2.65302174e-02
    1.76477116e-02 -4.22486290e-03 6.87697576e-03 1.61502119e-02
    -8.95478204e-03 9.46423039e-04 -4.00246307e-03 8.29088240e-05
    -1.09725920e-02 1.51929911e-02 1.20032113e-02 -2.43939296e-03
    1.02892620e-02 -7.15399953e-03 -5.74278599e-03 -1.52754141e-02
    3.18159722e-03 -1.64265337e-03 2.46291645e-02 2.55737687e-03
    -6.74621295e-03 2.02474706e-02 2.14806013e-03 6.76709320e-03
    -2.60771643e-02 3.99350375e-03 -2.28910632e-02 7.75287859e-03
    6.00999547e-03 -7.60690169e-03 1.48739554e-02 2.26294762e-03
    1.71295032e-02 -2.70825773e-02 -1.47406273e-02 -2.78673582e-02
    -9.11090523e-04 -5.67696057e-03 -3.40373372e-03 1.50165772e-02
    5.04737627e-03 9.80453659e-03 -1.01772174e-02 -2.37516849e-03
    -1.40206683e-02 2.39918958e-02 1.41899688e-02 6.26138411e-04
    2.26267893e-02 7.90123176e-03 3.30198333e-02 -1.17490310e-02
    -6.68079546e-03 -9.17581376e-03 2.01069284e-02 2.09172931e-03
    -1.24745246e-04 1.09357741e-02 -6.98955404e-03 1.31550999e-02
    -1.36042880e-02 -2.67828058e-04 -1.15041984e-02 1.33535741e-02
    -7.07378937e-03 2.85462313e-03 9.50819347e-03 -1.09737869e-02
    1.00025572e-02 2.70964066e-03 1.78509504e-02 1.28363343e-02
    -1.14804460e-03 -1.95236374e-02 1.79782994e-02 1.29437419e-02
    -6.64952165e-03 2.14092098e-02 -2.32637040e-02 -1.54622216e-02
    -1.04914615e-02 1.29576400e-02 4.17059800e-03 1.68251954e-02
    -8.11706646e-04 -1.03522316e-02 1.19141545e-02 -6.34703413e-03
    4.26681340e-03 -4.36530681e-03 1.00615006e-02 9.71289910e-03
    1.56853590e-02 8.64654873e-03 -6.87207375e-03 3.53194983e-03
    7.38353294e-04 8.26762337e-03 9.27385595e-03 7.28799263e-03
    -1.43543230e-02 3.18876089e-04 6.96595619e-03 -4.38497402e-03
    2.27964064e-03 -1.77443810e-02 -1.42438977e-03 -3.04926392e-02
    -9.60117541e-05 -1.71831343e-02 1.92221701e-02 1.53889470e-02
    2.22283034e-05 1.05354283e-02 -8.33339617e-03 -1.36324519e-03
    -1.64677412e-03 1.68868992e-02 -2.24690913e-04 1.63208251e-03
    1.22719035e-02 -1.61501719e-03 1.84154394e-03 -3.70496586e-02
    -6.15408830e-03 -2.39821952e-02 8.05066060e-03 -6.66379277e-03
    6.53439260e-04 1.23653039e-02 7.87710026e-03 -3.35564511e-03
    6.32391265e-03 1.14384834e-02 3.73788178e-03 2.02188771e-02
    -2.68224953e-03 2.38488801e-03 -8.49179341e-04 -4.94183693e-03
    -3.96254892e-03 -1.09862315e-03 4.02571546e-04 -8.10199138e-03
    2.17459127e-02 -9.68742929e-03 -1.83135306e-03 4.73749591e-03
    5.54475049e-03 -4.66631586e-03 -2.32639648e-02 3.22943460e-03
    -4.33819788e-03 1.25150736e-02 -8.31615739e-03 -1.50424312e-03
    4.26018657e-03 -2.45937612e-03 -5.45646576e-03 -2.39862893e-02
    4.55255009e-04 -5.36650140e-03 1.65456645e-02 -6.97727036e-03
    -7.70379975e-03 -1.10353231e-02 -2.06148699e-02 -1.10987294e-02
    1.36556244e-02 4.05824510e-03 -1.19687896e-02 1.43373245e-02
    -1.45635158e-02 -2.87138741e-03 3.65253026e-03 9.94324684e-04
    6.26445003e-03 2.06597205e-02 2.40267590e-02 1.29010167e-03
    1.15142753e-02 -2.03239191e-02 2.76350556e-03 1.36308400e-02
    -4.23924113e-03 2.93615879e-03 -7.04344921e-03 -5.36713851e-05
    -1.37773929e-02 6.55278703e-03 -9.51338850e-04 1.26998648e-02
    2.14732867e-02 -9.79890116e-03 4.73849149e-03 6.38157886e-04
    1.30800894e-02 -6.03484921e-03 -9.53861978e-03 -1.58878304e-02
    9.61317588e-03 2.03062855e-02 -5.66931721e-03 -4.82784305e-03
    6.28259219e-03 1.63660012e-02 5.82749071e-03 2.33129039e-03
    -1.16328187e-02 2.53600231e-03 8.91339313e-03 -1.45749794e-02
    4.21414059e-03 -4.39391797e-03 1.55811198e-02 5.50640607e-03
    1.18504069e-03 -1.02273347e-02 8.21858924e-03 1.33960741e-02
    -1.46754393e-02 -3.23206885e-03 -6.06639078e-03 1.26650082e-02
    7.04062055e-04 -2.88838544e-03 -9.48012248e-03 -8.72293394e-03
    1.09492717e-02 -1.47857014e-02 -9.53695644e-03 -1.66163649e-02
    5.59358066e-03 7.81709515e-03 8.43490008e-03 -4.49063256e-03
    -3.03612510e-03 -2.19462696e-03 -1.60529986e-02 -9.81546837e-05
    1.48691749e-02 -1.34688581e-03 1.97558408e-03 -1.01329526e-03
    -1.72075871e-02 -4.77359490e-03 3.34748952e-03 -2.82666553e-03
    -2.77864980e-03 2.73476671e-02 2.45120423e-03 1.11973267e-02
    1.05980150e-02 -2.51892004e-02 9.89581924e-03 1.66274123e-02
    2.33143941e-03 -8.11025407e-03 -2.64494168e-03 -7.37185637e-03
    -1.92359951e-03 9.10394173e-03 4.41561715e-04 6.85496861e-03
    1.07667306e-02 2.71176361e-03 -7.74687389e-03 3.21194204e-03
    -1.45051107e-02 8.65205470e-03 -1.48214097e-03 -8.29849485e-03
    -3.65548884e-03 1.07494267e-02 -5.74485725e-03 1.59446597e-02
    1.49034150e-02 1.40419303e-04 1.97673328e-02 1.87003296e-02
    -2.50030048e-02 2.68072239e-04 -8.64131784e-04 -1.13114817e-02
    1.11583704e-02 1.69155258e-03 4.13681753e-03 1.41802840e-02
    5.93853137e-03 -2.69718077e-02 2.84393318e-03 5.10650501e-03
    -6.99430332e-03 2.60408074e-02 1.19113429e-02 -8.30237102e-03
    5.75577281e-03 1.41518479e-02 -6.12517400e-03 9.09418240e-03
    -1.40196644e-02 -1.36223463e-02 2.28918288e-02 3.56028811e-03
    3.28836101e-03 1.73853766e-02 1.34882675e-02 -6.90873107e-03
    -5.15150721e-04 1.58704375e-03 -2.72179279e-03 1.29851932e-02
    -1.95050165e-02 -7.66200200e-03 -5.86700975e-04 1.95351499e-03
    -1.23450039e-02 -6.06423011e-03 -8.15518852e-03 -2.07704324e-02
    -4.79838206e-03 -1.09406784e-02 5.10915834e-03 1.22104874e-02
    1.64925717e-02 -3.35436268e-03 1.89627763e-02 -1.34340329e-02
    -1.11588584e-02 1.99212488e-02 3.00870952e-03 8.20815284e-03
    1.14645455e-02 1.82872675e-02 -1.08664995e-03 9.41882282e-03
    -8.64147488e-03 -6.09419867e-03 6.68988051e-03 1.25804292e-02
    4.71207360e-03 1.08720793e-03 2.14390364e-03 -6.99834852e-03
    -2.74697342e-03 7.47812213e-03 -2.41320208e-02 -7.95392506e-03
    -5.43554220e-03 5.48491487e-03 2.08962075e-02 2.82097980e-02
    -6.26765518e-03 -1.01787662e-02 6.56109769e-03 -4.75659827e-03
    6.90753711e-03 4.23284248e-03 -2.86032184e-04 1.23589048e-02
    -3.57063091e-03 -2.66384389e-02 6.75217900e-03 1.47267375e-02
    -6.55481266e-03 8.06582347e-03 1.39388414e-02 1.31218126e-02
    1.16323959e-02 1.50407767e-02 3.29642906e-03 4.30253660e-03
    1.88968703e-02 -2.78093177e-03 1.54848015e-02 7.13764410e-03
    9.29935556e-03 1.44003145e-02 1.89801138e-02 -7.64399627e-03
    -4.17014956e-03 -6.37855986e-03 9.97084659e-03 1.48376403e-02
    7.00287567e-03 -1.84024649e-03 1.67128835e-02 -4.10503568e-03
    -2.40759831e-02 1.33899762e-03 5.24507836e-04 8.92410427e-03
    2.67118197e-02 1.14460494e-02 1.51460441e-02 3.84939089e-03
    -7.24404864e-03 -1.72648113e-02 1.95699595e-02 1.24869747e-02
    -3.19503224e-03 1.35753890e-02 9.53853410e-03 6.45989086e-03
    6.66301418e-03 8.27125553e-03 5.66914259e-03 1.64335128e-02
    1.06138457e-02 4.40091500e-03 2.29368377e-02 -8.18304997e-03
    1.01457406e-02 1.99964782e-03 -2.54069688e-03 2.87600583e-03
    -2.95987888e-03 3.48281814e-03 9.61572304e-03 1.56632755e-02
    1.24510964e-02 1.89794581e-02 -1.23504736e-03 6.35437536e-05
    -1.06361508e-02 1.09065492e-02 -2.27433629e-03 1.03468848e-02
    1.21277859e-02 7.00004958e-03 1.50848981e-02 -3.56776034e-03
    -4.60320525e-03 -2.24623829e-03 1.34591646e-02 6.37314608e-03
    6.81030285e-03 1.37883481e-02 -7.45340763e-03 1.44564193e-02
    3.56079219e-03 3.71816591e-03 -3.44108418e-03 1.16859535e-02
    2.85227987e-04 9.19312332e-03 2.12419266e-03 -1.45651260e-03
    9.68296640e-03 8.43712594e-03 -8.23908392e-03 -4.30179248e-03
    1.05934422e-02 6.93153939e-04 1.04224272e-02 -4.85749822e-03
    -2.07881632e-04 1.45429773e-02 1.29574770e-02 5.14677865e-03
    4.24405234e-03 2.30843686e-02 1.52509324e-02 7.18620420e-03
    1.09911896e-02 1.23326983e-02 1.31450268e-02 6.93135802e-03
    8.27216078e-03 1.62013154e-02 1.56552717e-02 -1.93929329e-04
    5.79966372e-03 3.14320181e-03 -4.92896698e-03 -5.25138853e-03
    1.29308440e-02 2.75680330e-03 6.14661258e-03 5.90865966e-03
    1.28902335e-04 8.75340775e-03 1.83897279e-02 8.49097874e-03
    -4.06213570e-03 1.13137336e-02 9.07716248e-03 -3.73134669e-03
    2.22313516e-02 2.45537981e-03 -1.18291788e-02 -1.90419407e-04
    -3.34220217e-03 -1.35236548e-03 1.37039355e-03 1.02038477e-02
    2.78925616e-02 2.15932261e-02 -6.73552603e-03 -9.40341782e-03
    8.10427126e-03 8.10673367e-03 7.39082275e-03 7.32671542e-05
    6.38893471e-05 1.38075892e-02 1.27981259e-02 -6.91472180e-03
    -2.64890236e-03 4.31521621e-04 -2.44811084e-03 -1.11637041e-02
    1.64380262e-03 6.53177546e-03 2.87791411e-03 7.39151496e-04
    -4.69239242e-03 -1.20514855e-02 2.56562536e-03 2.56986041e-02
    6.80879410e-03 1.27100258e-03 -4.19714581e-03 -1.28294313e-02
    2.51054261e-02 3.13579408e-03 -6.15877006e-03 -2.92756566e-04
    6.50130503e-04 2.09844671e-03 -5.20403613e-04 6.40121521e-04
    1.88101064e-02 -2.63480586e-03 -2.50336411e-03 -4.58813831e-03
    -8.69913399e-03 -1.23688383e-02 -3.67225986e-03 -6.38467818e-03
    4.63147881e-03 4.54328692e-04 1.84604339e-02 -3.34980176e-03
    -7.91610964e-03 -7.43070105e-03 1.08140521e-02 1.04307616e-02
    2.62084906e-03 -6.65385230e-03 -1.72628928e-03 -5.14875492e-03
    -1.42003903e-02 -6.39805896e-03 -7.36448588e-03 -1.11527359e-02
    -8.80469044e-04 -2.85999058e-03 2.88511580e-03 -7.62411114e-03
    -5.41769154e-03 -4.32449114e-03 3.02038807e-03 1.16405254e-02
    6.49670325e-03 5.23754070e-03 2.42146524e-03 1.82366103e-03
    1.40379295e-02 -1.21242786e-02 -1.57475716e-03 5.03549399e-03
    2.32186485e-02 6.07579108e-03 1.25381611e-02 -5.77731617e-03
    8.40312429e-03 1.69196501e-02 -1.68172400e-02 -1.53558329e-02
    6.24036929e-03 1.62504409e-02 2.60484358e-03 3.82357859e-03
    1.11027295e-03 2.52993242e-03 -9.65722930e-03 -2.32783146e-02
    -2.64888890e-02 -1.37689733e-03 1.58185195e-02 -7.50465610e-04
    1.05370935e-02 -3.50763858e-03 -1.90662488e-03 -1.84102617e-02
    -6.46790606e-04 1.62881240e-02 1.54592544e-02 1.70051008e-02
    4.64496668e-03 5.94787998e-03 1.01962229e-02 1.59920771e-02
    1.44217573e-02 -3.40975565e-03 8.47272854e-03 5.64312050e-03
    2.52972241e-03 -2.14209617e-03 7.30201043e-03 1.58501621e-02
    5.63521171e-03 6.54790737e-03 -1.72578841e-02 -2.31494177e-02
    4.02573682e-03 1.27281435e-02 1.15410064e-03 1.28296772e-02
    9.28382576e-03 1.55898267e-02 -7.05074938e-03 -1.45854112e-02
    -2.10424550e-02 -9.33339936e-04 -1.66505761e-03 -7.83814304e-03
    -4.21078131e-03 -9.23099276e-03 -4.94425045e-03 1.91022549e-03
    1.13534583e-02 1.28878010e-02 2.40747072e-03 -5.06693404e-03
    -1.41746504e-02 1.18067034e-03 8.73080862e-04 -2.21257517e-03
    1.05686123e-02 2.16970942e-03 6.74332478e-05 8.98571406e-03
    -2.73423619e-03 -4.28493507e-03 -8.71726894e-04 1.65700749e-03
    -1.04694255e-03 7.18331838e-04 2.25746632e-03 -6.84026349e-03
    1.21404091e-03 2.59595970e-03 -1.44804120e-02 -4.43175063e-03
    -9.38011892e-03 -1.43896630e-02 1.57685298e-02 4.24891105e-03
    1.90385932e-03 1.32304942e-02 -3.82311665e-03 -7.25829694e-03
    -6.22946862e-03 1.87796413e-03 -1.19554373e-02 2.35079527e-02
    4.35298542e-03 -1.51288332e-02 -4.00287611e-03 -1.12712104e-03
    -1.78024378e-02 8.58493336e-03 6.18649647e-03 -1.41125554e-02
    5.72472345e-03 1.42933903e-02 7.09765498e-03 5.61214751e-04
    -9.83052189e-04 -2.98054121e-03 1.79523118e-02 2.01882385e-02
    -1.59476306e-02 4.43686312e-03 4.54387348e-03 -2.38859421e-03
    -7.49787036e-03 -9.34382528e-03 -2.27358248e-02 -5.94086293e-03
    8.13314877e-03 -1.54158557e-02 1.04936520e-02 1.61596835e-02
    1.20037934e-03 5.50492760e-03 5.51084173e-04 2.25016382e-03
    2.21821032e-02 1.11427186e-02 -1.22412331e-02 1.83296017e-02
    1.63523182e-02 -2.58004293e-03 1.58068072e-03 -2.16495059e-03
    3.86415259e-03 7.71728531e-03 7.67517136e-03 -1.03780348e-02
    1.56472549e-02 6.62749773e-03 -1.40047364e-03 4.93047992e-03
    -2.16405746e-03 9.06434562e-03 -5.88689290e-04 -9.76725761e-03
    -1.31196911e-02 6.30755955e-03 -9.60374891e-04 -4.88698576e-03
    9.58201755e-03 4.56467411e-03 -3.46195418e-03 1.93502642e-02
    3.06111481e-03 -1.31803285e-02 1.20974134e-03 -1.22042056e-02
    -1.98538173e-02 -3.70782707e-03 -7.99568254e-04 -1.99352782e-02
    -6.79018488e-03 -1.23075107e-02 -1.48894945e-02 -8.02702922e-03
    6.44673826e-03 1.91418547e-03 7.47876521e-03 -3.03940312e-03
    3.52524756e-03 2.74257455e-03 3.21105449e-03 1.73999532e-03
    1.16479220e-02 1.80334406e-04 8.12023820e-04 9.67560243e-03
    1.32802697e-02 8.67411122e-03 8.39392468e-03 -4.90661897e-03
    5.97740989e-03 -6.27215533e-03 -3.05749523e-03 -8.54973588e-03
    3.65276658e-03 -4.62996541e-03 -1.59602575e-02 -8.83785635e-03
    -2.21851859e-02 -1.40041476e-02 8.66950024e-03 4.14177263e-03
    -1.11393668e-02 -4.49638069e-03 -9.19027161e-03 -2.64687208e-03
    -2.09373850e-02 -2.49553751e-02 -1.73131637e-02 -8.58664606e-03
    1.55728706e-03 1.01792272e-02 1.65177789e-02 1.47821000e-02
    2.12303195e-02 1.90247167e-02 4.34185471e-03 6.17485354e-03
    4.91725141e-03 -5.05806459e-03 -1.09765064e-02 -6.66550267e-03
    -4.27802000e-03 -1.34381407e-04 2.73326337e-02 3.48099181e-03
    -6.21445943e-03 -4.24536318e-03 1.17107006e-02 9.61982994e-04
    -9.72902402e-03 -4.15760325e-03 6.60071708e-03 -1.13031361e-02
    -6.34232908e-03 -4.45121480e-03 1.19136029e-03 1.27441797e-03
    1.71433203e-03 8.15807935e-03 -8.51988327e-03 -2.44990602e-04
    -8.08844459e-04 -6.66271569e-03 -1.98827181e-02 -3.65218543e-03
    -1.93131547e-02 -1.31749948e-02 -7.72228092e-03 -6.38524070e-04
    -5.91235096e-03 2.38843299e-02 -4.51655546e-03 3.93576018e-04
    -9.04657785e-03 -1.32788159e-02 -5.29600447e-03 2.30762432e-03
    1.60180852e-02 1.02991257e-02 9.88501217e-03 1.58575531e-02
    1.49592673e-02 1.02926251e-02 -1.37754437e-03 -5.11022052e-03
    -4.51540854e-03 5.80643630e-03 4.26026015e-03 2.90626884e-02
    -2.32342468e-03 -2.45630573e-02 -1.81863140e-02 -3.60375177e-03
    -5.58462832e-03 5.61938435e-03 1.86905358e-02 1.54695185e-02
    2.11375561e-02 7.79616414e-04 -1.33481640e-02 -1.13137830e-02
    -1.41845848e-02 -1.21865682e-02 -3.74677987e-03 5.99279581e-03
    9.74598713e-03 6.56472472e-03 3.84408259e-03 1.23109678e-02
    1.28551302e-02 -1.16831185e-02 4.87215491e-03 -1.20419934e-02
    -4.31627315e-03 1.44639760e-02 2.01092009e-02 6.88913697e-03
    1.68851111e-02 3.32569308e-03 -1.40180681e-02 -1.41332997e-02
    -2.57392391e-03 6.42643869e-03 5.10214921e-03 1.20662367e-02
    5.65162767e-03 9.80786607e-03 -2.96991272e-03 7.44721992e-03
    -7.39395479e-03 -2.51649809e-03 1.01234382e-02 1.30017083e-02
    2.28099357e-02 1.47046279e-02 1.58832688e-02 -2.88096163e-03
    -6.35351054e-03 -5.49291680e-03 -1.65480084e-03 6.82544569e-03
    7.37549225e-03 2.51804795e-02 7.74445070e-04 -7.95262959e-03
    4.79535619e-03 -2.36749779e-02 -8.35143030e-03 1.39504047e-02
    8.53551831e-03 1.44370962e-02 2.52474155e-02 1.20693985e-02
    -3.95317841e-03 -8.23267642e-03 1.77490595e-03 -2.67904368e-03
    -2.43412843e-03 1.13197435e-02 9.95267741e-03 1.14039658e-02
    -2.01514736e-02 -1.78620927e-02 -2.66834116e-03 -2.16543139e-03
    4.75548115e-03 2.49765068e-02 1.35838157e-02 2.76378021e-02
    9.98926163e-03 -1.02488836e-02 -9.03792214e-03 9.99731198e-03
    -3.45116504e-03 -1.09459674e-02 3.28941341e-03 3.26619041e-03
    -1.01449685e-02 1.88817531e-02 1.55070219e-02 2.61666696e-03
    1.42836887e-02 -1.12031084e-02 -1.34330969e-02 1.24056404e-02
    2.25150269e-02 -1.01860529e-02 6.26436155e-03 -1.37252910e-02
    -1.10014472e-02 1.56380655e-03 1.89825008e-03 -2.88779824e-03
    6.95248228e-03 -9.43664182e-03 -9.90860723e-03 2.56377505e-03
    7.66219711e-03 1.48457345e-02 2.62555853e-02 1.62728988e-02
    -1.37745757e-02 1.47334402e-02 7.32404506e-03 -1.32410256e-02
    -7.24503491e-03 1.35808941e-02 2.28477418e-02 1.72776580e-02
    3.47857742e-04 -5.79559663e-03 1.00749033e-02 6.93276571e-03
    -1.34106157e-02 3.51152127e-03 -3.57035594e-03 -4.92825988e-04
    5.88918291e-03 -8.09279829e-03 -1.37533741e-02 1.90990875e-04
    2.08897237e-03 -1.83536969e-02 -1.07516220e-03 -1.63357109e-02
    -5.63212624e-03 -7.59643037e-03 2.08188780e-02 -1.28828306e-02
    7.63355149e-03 4.81507136e-03 -1.92176737e-02 -1.68455318e-02
    5.22047374e-03 4.22043586e-03 2.29371767e-02 1.38992323e-02
    -1.12262545e-02 9.22872312e-03 1.87390717e-03 1.46009552e-03
    5.37114358e-03 -1.82363652e-02 -7.65113346e-03 2.10843310e-02
    -4.12116619e-03 -3.18348338e-03 4.13904060e-03 6.73694862e-03
    -6.50854409e-03 3.09247454e-03 -1.31451152e-02 1.23570126e-03
    -6.38804538e-03 -4.14829003e-03 -4.41112847e-04 4.66739433e-03
    1.06652465e-03 -1.30845932e-02 -6.42920006e-03 -1.19947176e-02
    5.10130404e-03 -8.27314518e-03 1.70418974e-02 -1.34617602e-03
    1.96125638e-03 6.86636195e-03 -1.65849458e-03 1.05881300e-02
    -3.88618745e-03 -9.45993885e-03 1.31632481e-02 9.28368792e-03
    -6.60361547e-04 -4.81461687e-03 -7.30465865e-03 -2.58151838e-03
    -2.76792645e-02 -1.54393818e-02 -8.90992489e-03 1.25231538e-02
    7.87959376e-04 1.62684789e-03 7.63549143e-03 3.99588665e-04
    -6.74639689e-03 -1.34144649e-02 -5.81736723e-03 6.74187485e-03
    3.21189221e-03 2.17714719e-03 -3.72825866e-03 4.22055181e-03
    3.42567824e-03 -2.28675399e-02 -1.17766403e-03 1.68406349e-02
    1.89575646e-02 2.16843095e-03 4.08520317e-03 -1.65262190e-03
    -5.15850540e-03 -1.60117466e-02 -2.00320464e-02 -3.33310813e-02
    -9.36941244e-03 -1.39113469e-03 1.32860299e-02 6.40141312e-03
    8.39137379e-03 -1.38860159e-02 -1.73106156e-02 -3.19481716e-02
    -1.41416052e-02 -3.42673576e-03 -8.42864718e-03 9.26584192e-03
    -9.14695766e-03 1.94444153e-02 9.76540893e-03 1.71794631e-02
    6.12752046e-03 4.70010884e-04 -2.19519138e-02 2.64180731e-02
    1.34572908e-02 2.24976591e-03 3.76537964e-02 2.08393428e-02
    3.59897688e-02 1.71643365e-02 9.90571547e-03 -1.53241269e-02
    2.31996886e-02 8.84130877e-03 -7.90856779e-03 3.68256532e-02
    1.03503466e-02 1.45909851e-02 1.76341720e-02 5.02604805e-03
    -2.55435463e-02 1.07578784e-02 -3.59422853e-03 4.02193946e-05
    3.55462842e-02 1.89813040e-02 4.37979735e-02 8.14310461e-03
    6.22100924e-05 -2.32956447e-02 1.64547637e-02 -5.46655059e-03
    2.07867031e-03 2.22339034e-02 6.88099815e-03 1.60308164e-02
    5.31643908e-03 1.27192764e-02 -1.32081714e-02 9.80000291e-03
    -4.03984915e-03 -1.26873069e-02 3.06444727e-02 1.13308989e-02
    1.76019687e-02 -1.32821975e-02 5.97821642e-03 -1.03619182e-02
    1.17388926e-02 -7.87597615e-03 -3.86773376e-03 1.23001803e-02
    9.11878794e-03 2.23681014e-02 1.39665389e-02 -5.69346407e-03
    -2.63309516e-02 2.81360606e-03 -9.83154122e-03 -1.24806883e-02
    2.22643185e-02 1.38071161e-02 3.01784966e-02 6.94530923e-03
    1.54075958e-02 6.62796607e-04 1.77903846e-02 -1.01468759e-02
    -1.39099183e-02 1.83106381e-02 6.52512582e-03 2.62122918e-02
    6.62781764e-03 -2.09156354e-03 -5.59796207e-03 1.33765303e-02
    -2.03167065e-03 -2.74604186e-02 8.11333675e-03 -9.03799850e-03
    3.03668547e-02 1.33128008e-02 -8.92490894e-03 -2.78842989e-02
    5.17890695e-03 -3.34588885e-02 -1.47393374e-02 8.88582692e-03
    6.31429721e-03 2.75632236e-02 2.34301500e-02 -2.02177162e-03
    -5.41072665e-03 8.47356673e-03 -3.13367019e-03 -1.32164108e-02
    -9.25077870e-03 -1.38331056e-02 2.07307730e-02 1.12742055e-02
    -1.58213417e-03 -1.56481359e-02 9.59131029e-03 -2.08272524e-02
    -7.04111718e-03 2.49393191e-03 -1.09251626e-02 1.10619692e-02
    2.47900691e-02 9.69908957e-04 -4.10717475e-04 5.76649047e-03
    -2.62450110e-02 -1.31842876e-02 1.45279188e-02 -5.78124961e-03
    5.89078618e-03 3.42408428e-03 -2.45324592e-03 -1.41971335e-02
    -1.42588103e-02 -1.79872923e-02 -1.07216854e-02 -5.49467467e-03
    -1.64904483e-02 9.92023852e-03 -2.62948149e-03 -4.98087611e-03
    -3.84821906e-04 5.01946500e-03 -1.95098612e-02 1.05542280e-02
    1.70839913e-02 1.98329501e-02 9.09067225e-03 1.66350771e-02
    7.43655069e-03 1.06661329e-02 8.76789633e-03 -2.88684154e-03
    -4.50196676e-03 1.00355418e-02 -1.41788954e-02 -3.46914306e-03
    -1.03714718e-02 -1.75904145e-03 -1.36059122e-02 -1.48323132e-03
    -1.19140707e-02 6.09962782e-03 2.30864156e-02 9.98737942e-03
    1.54308639e-02 2.08487222e-03 -4.85386560e-03 -1.09153520e-03
    8.48569162e-03 -6.06101658e-03 6.96789380e-03 2.88674217e-02
    2.93831574e-03 -1.50710141e-04 1.47994226e-02 8.91795754e-03
    -9.44926590e-03 2.86071678e-03 1.46671233e-03 8.63563176e-03
    4.23056819e-02 2.68129427e-02 2.98209880e-02 1.09902928e-02
    1.56182575e-03 -6.09553512e-03 1.23999612e-02 -7.94584746e-04
    4.73597273e-03 1.26032783e-02 5.27193584e-03 6.85208244e-03
    4.30707762e-04 4.38262103e-03 -2.06049718e-03 1.66089367e-02
    -7.02028535e-03 1.03479410e-02 9.87902097e-03 4.66705812e-03
    9.64827929e-03 1.51328528e-02 7.01519754e-03 -8.88345484e-03
    2.02547796e-02 3.37708159e-03 4.82378481e-03 2.70580687e-02
    1.01692611e-02 1.98988374e-02 1.38824033e-02 1.15382383e-02
    -4.15921630e-03 3.08372499e-03 2.15029271e-04 -3.43340193e-03
    6.08801097e-03 5.25249355e-03 1.34347472e-02 1.35369841e-02
    5.67143131e-03 -6.68757642e-03 9.81905404e-03 -4.66725836e-03
    2.32386310e-02 -2.49065785e-03 -1.15978243e-02 4.96366585e-04
    2.11087428e-02 6.45625032e-03 2.19355756e-03 2.23913789e-02
    7.74928974e-03 7.73458509e-03 7.78495707e-03 -9.39868507e-04
    7.48818275e-04 1.93022732e-02 1.63363907e-02 8.19341745e-03
    6.15719380e-03 1.57560094e-03 1.25561217e-02 2.02960968e-02
    3.71188065e-03 4.20536939e-03 -7.95446523e-03 -1.96207147e-02
    -2.25523096e-02 3.80499451e-03 3.85529781e-03 1.01745697e-02
    2.71613467e-02 6.49402523e-03 6.87321066e-04 4.39589936e-03
    1.23795597e-02 7.99630710e-04 9.50419344e-03 1.35310302e-02
    7.71903014e-03 1.20164305e-02 -2.86181271e-03 -3.81650031e-03
    2.59863655e-03 1.00585027e-02 -4.44063963e-03 1.49047282e-02
    7.94895645e-03 -2.88589695e-03 1.58059206e-02 -1.82275067e-03
    3.29098525e-03 1.69471791e-03 7.68683525e-03 -1.10919215e-02
    1.89873967e-02 1.23451371e-02 1.29129356e-02 2.32575033e-02
    6.75804541e-03 8.94432701e-03 3.91689269e-03 6.51780423e-03
    -6.42155809e-03 6.87115779e-03 9.69959423e-03 6.17169775e-03
    2.10379455e-02 3.71773727e-03 8.92592501e-03 2.02365089e-02
    1.58087909e-02 7.76738720e-03 1.70071889e-02 1.36310980e-03
    2.05842275e-02 2.20812615e-02 -9.38952062e-03 -8.90323240e-03
    3.70857003e-03 6.39487815e-04 -1.16579141e-02 2.55482793e-02
    2.33320557e-02 -1.13310013e-03 4.69385227e-03 -6.36955304e-03
    3.54973413e-03 -2.05407683e-02 -1.10918209e-02 -1.42321950e-02
    1.25589268e-02 8.35661404e-03 1.05658751e-02 2.12899502e-02
    -2.26746383e-03 -4.28471714e-03 1.94170978e-02 1.37142260e-02
    -3.02457041e-03 4.32487158e-03 3.45640769e-03 -1.56486798e-02
    -4.95659886e-04 -1.31767588e-02 5.74342860e-03 -1.89139962e-03
    8.04302935e-03 -9.19845421e-03 1.73291622e-03 -7.98697583e-03
    5.84398746e-04 3.26112891e-03 3.31950723e-04 4.15550632e-04
    -8.85566324e-03 -9.05053504e-03 -1.10242087e-02 1.53402686e-02
    9.55582783e-03 4.72557405e-03 -6.33277523e-04 -1.70688927e-02
    1.42413117e-02 -5.86839439e-03 -4.09166561e-03 -8.47749878e-03
    -2.06352255e-04 -8.48029740e-03 -2.03915387e-02 -9.96198691e-03
    -1.94501597e-02 -4.73595737e-03 -1.46233570e-02 -2.80555687e-03
    2.27973261e-03 6.12611126e-04 -1.52155422e-02 -1.62086133e-02
    -5.39468182e-03 -1.16804931e-02 1.59562398e-02 -1.17690982e-02
    1.17860101e-02 -7.26645207e-03 9.20804776e-03 -7.35250767e-03
    3.49118635e-02 1.23963086e-02 -1.21374168e-02 1.51561685e-02
    -1.15916319e-02 4.96684667e-03 7.88069889e-03 9.98133514e-03
    7.94528145e-03 2.83736084e-02 -2.81500258e-03 -5.01245400e-03
    8.39209277e-03 -2.20392123e-02 -1.95796732e-02 -6.67762384e-03
    -1.71906501e-03 9.22146719e-03 2.04006732e-02 2.65907962e-02
    -1.04295854e-02 3.57301557e-03 -4.10424080e-03 9.23268590e-03
    -6.49501197e-03 4.64559393e-03 7.12895393e-03 8.65183678e-03
    1.36266155e-02 -1.18773859e-02 -7.20425788e-03 -1.23731904e-02
    -8.17628857e-03 -1.80236828e-02 -2.01375457e-03 -8.94345995e-03
    2.84881908e-02 -1.89316738e-03 -1.17517756e-02 6.76746247e-03
    1.32280327e-02 3.22281802e-03 -2.10493756e-03 2.11174842e-02
    1.53934918e-02 7.07293302e-03 -2.70477892e-03 -4.47952515e-03
    -1.00284480e-02 -2.05209889e-02 4.87922784e-03 -9.49972589e-03
    3.44567280e-03 -4.94027929e-03 -2.89931940e-03 3.70634208e-03
    -8.22290406e-03 2.89429747e-03 1.46216061e-02 9.50860977e-03
    -9.51093342e-03 8.99395440e-03 -5.66169387e-03 -4.74563194e-03
    2.03722785e-03 3.71626508e-03 4.41265060e-04 2.42388633e-04
    6.90003065e-03 -3.64149082e-03 9.49201547e-03 -1.64438598e-02
    7.24769011e-03 -2.85704876e-03 -3.37834284e-03 -1.02092298e-02
    -2.29416192e-02 1.42866438e-02 -6.57158904e-03 5.32580307e-03
    -8.43497179e-03 3.87667422e-03 -8.20123870e-03 -3.78157757e-03
    -1.16524717e-03 -3.43824108e-03 2.89057521e-03 -9.44823585e-03
    8.96255299e-03 4.67763096e-03 7.76293362e-03 5.21702599e-03
    3.63862811e-04 -7.68107129e-04 -4.53266664e-04 1.30353076e-02
    -3.15820565e-03 9.41426307e-03 -4.66476427e-03 -3.80180357e-03
    1.90318224e-03 3.36056291e-05 4.44340473e-03 2.16899011e-02
    7.50090508e-03 -1.24171320e-02 1.73852500e-02 -6.56807423e-03
    -5.09405788e-03 -9.10894852e-03 -4.47638799e-03 7.42295990e-03
    5.55917295e-03 6.33849821e-04 -9.29046702e-03 1.02660451e-02
    7.86099862e-03 6.51653763e-03 3.74502246e-03 -1.16009833e-02
